18 64
P-P -4.391300346656406 1.0795902842123897 3.024020749033445 4.591922033711785 4.654276381203155 4.407457039938111 -5.151752595019369 3.4867908616547405 3.511119987831663 4.853257041774886 5.342064054863336 1.8433574430569823 2.6413812729886947 3.5813881138690213 3.8800842053998044 -6.000035446885943 3.510291366380618 3.4142256465321856 4.969149840650637 4.404548968859866 5.070380834709468 4.673561112792447 3.711361903378222 3.101562112751815 -6.000001456608133 -3.7098871195657814 5.190825260201431 3.873425152813285 4.056621956765834 3.1529421897055627 3.239998668301694 3.461161872842313 4.599847536370268 3.6300828637498577 4.61722698787667 4.807720451504298 3.7500508201909053 4.648478856219173 3.5480760238588207 4.150691891362728 -4.730439280842289 3.720949120219562 -6.000011178753859 2.931267124237696 3.086646640956902 5.027730322334025 3.6930264830199335 3.557575855415985 4.636761326058749 3.7727209995738917 2.512956647702012 3.4922102978735468 2.3967791920933 3.8099326541977194 4.910491138936683 3.2293684415311414 4.447673003656615 5.164825755006044 5.277606468852327 2.822620211501643 2.714105682220757 5.494360353138714 4.747819101079847 3.1963939104123518
