2076 64
27 0.19253701143723712 0.11827706580183414 0.06813861057852684 0.018019132428890975 -0.7249855315105954 -0.04460833893315299 -0.40428392816932296 -0.041077283228779 0.5379767113809493 -0.04104803675642997 -0.02249968244497653 0.9939994205294281 -0.0391971117799534 1.3079435734772513 0.1217713519320734 -4.041941750807813 -0.0559679396039822 0.053122194723452996 -0.03748371972487503 -0.011536093197714195 0.7776681434018502 1.1331192303620308 0.01754693339646103 0.047445900777572714 -0.046626442853024516 0.3585439802416941 0.00837360438394171 0.5423550061681692 0.48424786378340257 0.30990641652542295 -0.32325567905766656 -0.007178269209450599 0.48577480065039064 0.09574262770893764 0.4381868276815672 0.9407255184518261 1.1713446803106835 -0.011393345481454039 0.055254382568474696 0.8066667005125392 -0.18288202363674608 0.696172707137084 -0.35219009272190016 -0.05398824857772889 0.06367147641300025 -0.13551935648038269 -0.024076877918793958 0.024797841750898896 0.1257569521798317 0.5399335577348394 0.6880389170035618 0.040814278829637174 0.5180814801205543 0.7851195653235001 -0.12989167240588306 -0.1574309835756552 -0.014029806694070083 -0.06583972190302513 -1.2003137820723757 0.01178785070022058 -0.1590171605412769 0.0922494230894023 -0.02508911447478546 -0.14327420445301114
4 0.11301273930835858 -0.044181758629461894 -1.02871667345346 0.03016921739596883 -0.912596739782296 -0.7207432333153968 -0.4723152370017252 0.007145283441966307 0.8986458498069404 -0.029939038730862004 -0.09716137409420689 0.3727367675518456 0.09625504827160522 -0.04162232262155717 -0.497920678506603 -4.108396931365126 0.2191323193859693 -0.2584545853505871 -0.5877202174885733 0.14965575110211787 0.18101934354937613 -0.7242046368900655 0.28587467006754086 -0.11597608645768957 -0.01754439590219717 -0.08481941216687808 -0.14571381213047488 0.6034023535729145 0.4820550492608791 0.5675927591013942 -0.8416529962423086 -0.02639581822995954 0.37309465372184747 -0.22713693284317252 0.6089127670192916 0.2785047189605604 0.2250718182430207 -0.09514790591582971 -0.11703367592144409 0.5779053165354081 -0.2881096821085432 -0.29342066609607487 -0.7211089868912692 0.4436160482084718 -0.41600807383368904 -0.6126533890086625 0.019314872455818883 0.566286732231094 0.08815894861808869 0.5846503439579404 0.5801784660659852 -0.047380675268088715 -0.3767124760930188 -0.04131933538425874 -0.18979804615889587 -0.6933799869181733 -0.016407964268899584 -0.18166860414059458 -0.27045893476855615 0.34830430811144125 0.16997879858913573 -0.2790223975650762 0.03343880740885327 -0.5002028687213501
8 0.36938370932686443 -0.3063333199021749 -0.47560693318087177 -0.09207164974970566 -0.32090116445914224 -0.2684246269726505 -0.5182635241695308 0.3760363675847761 -0.08588947396948825 0.08561626664283926 0.05271517218862317 0.04249507971115337 0.5486525009737793 0.6325591157770992 -0.17607558577751298 -4.35410100661829 0.6995321497149661 0.30467065551424427 0.0450016751962633 0.09544152694084936 0.6800250395321191 -0.2822071654120271 0.1621868377178758 -0.3837370500779938 0.018615904200149424 -0.10981233738708798 0.47379508333571374 0.29577215824351755 0.7990514243409692 0.17583818016066302 0.1780536089686507 -0.08859986615539103 -0.4011556606944003 -0.39640396582561027 -0.0018405879953555689 0.5339021597667045 0.4498860402959483 -0.10934487210702387 0.04188003940872365 0.21342850742321753 -0.09477765342608939 0.36588822920871533 -1.190739216182428 0.5715547942976432 -0.3857783088477327 0.13680117431358124 -0.020673124893757222 -0.28492537530857576 0.38458587519330134 0.6650608586412006 1.163158229631774 -0.7387524138862273 0.2769620215835451 -0.5185484140446528 -0.08712977161236093 -0.472660596907541 0.0031984662448330363 -0.6040885616086952 -0.2872215170668815 0.007607538090367464 0.5754240794762485 -0.24610326892860554 0.03602993587746019 0.23838823468454523
25 0.2594421595539828 -0.01782886902267624 -0.5033079592733213 -0.046060711300743115 0.20016531432720472 -0.3958142630179004 0.67520871242776 0.12724514433968834 0.19089568009676047 -0.10041222608193939 0.05245727082018139 -0.26871438102693396 0.015809378338918746 0.42031368382102613 0.17402659055076353 -3.9432627247368135 0.13891505481078076 0.122131582295907 0.0011807920708354286 4.957069919289954 0.3631868916062437 -0.1840292144446473 -0.7503362688483188 -0.22554736995434693 -0.6832943563552587 0.31387056306972594 0.16414028229848068 0.70463745460163 0.7251612176464938 -0.1323975785194467 0.016894423964701782 -0.564840204207059 0.30514417327821625 -0.47012210848656083 0.5077789770200876 0.5187907633067524 0.39937514856838996 0.14826776901367592 -0.03304523774124475 0.3441258538448755 0.5899986857473778 0.32432724980872035 -0.8968781865797368 -0.32864737598770555 0.10005448340485609 -0.39253290132300495 -0.015855677977007918 0.1390553991382037 0.38718792223805204 0.5327628569346935 0.5572381745110937 -0.16467346830536472 0.1251187132614482 -0.15341600628553884 0.16729206773993935 -0.3756251234738439 0.012329415213525288 0.3772534722296428 -0.20636341813700615 -0.1666937353161605 -0.21024705377457406 0.3877642374260788 -0.013573244047593672 0.09510339058097708
52 0.31358571134049235 0.398653478783149 -0.41266098328968387 -0.010176788663986256 0.2666795959443372 -0.2029001523684601 -0.1903056189383919 -0.06556133934377628 -0.21137645382630407 -0.023609330561364696 -0.00403251818881568 0.154334745183211 0.11281627474291663 0.25546828812695954 -0.05259552961779944 -4.69790207018843 -0.46108844727826664 0.07640164616976025 -0.011613952293146606 -0.09629542835761773 0.1633068137614465 -0.961427189806608 -0.4389492019899119 -0.5831288807847517 -0.32651155617422034 0.07162778613257444 -0.1652419276793137 0.5417921595026984 0.7640058429301179 0.001972416153564316 -0.2569588892742846 0.31687131958347214 0.24432652520950732 -0.7003777487019464 0.331521304835378 0.6497372756488112 0.4751505055916519 0.07102693551708306 0.2688552061997055 0.15527053316447967 0.021384362556615386 0.12709164048338742 -1.0665637524944294 0.56832993285548 0.7136257075698004 -0.5321131813393276 -0.1048719677859149 0.31898849732475754 0.012981669039814616 0.02622057483503712 2.3449163315068553 -0.2238416122368265 0.8678168580678126 -0.004193733452916463 -0.005449746879866606 -0.4874788598765944 0.01476489288428126 0.447436708406003 0.011849192199979871 0.7055591832188267 -0.6945933629738897 0.2848764393827141 -0.028311432978704896 0.05454047033601758
41 0.056098338811270486 0.14740861828372873 -0.2768364764713418 0.011497968975567518 -1.5487976094421958 -0.29725964822580603 0.4160783434783703 -0.691158235371636 0.40716038371760044 5.752404884844081 0.043560804715423694 0.09488492301078048 0.054822241220530706 0.07913310310561149 0.09708538459892073 -3.535435062083208 -0.22387897241869062 -0.2197738866756337 -0.31698683957773793 -0.10458408389826583 0.19356804613423545 0.20202140637934754 1.1268621839713746 -0.1975975100272691 -0.5462686268598527 0.023742289767936946 -0.08892450543790607 0.5419316871795472 0.26837334546946195 0.021034797248459195 -0.21939474466518954 0.08427577564193894 0.15631003020010428 -0.5006918463110341 0.35142132986643243 0.5808945378873871 0.349013643268975 0.18651618928247427 0.9413359237678733 0.5352723006828848 0.09027457995310617 0.1493681795038887 -1.0873249472405813 -0.06960497569928224 -0.5472617137554127 -0.1236108669394991 -0.2676469092825404 0.04807800738524369 -0.3643382099466229 0.23487551166133896 -0.8406834859621252 -0.19613172372785231 0.34790122068481033 0.0022545476787575484 0.043419205297141064 -0.2506913142952509 0.0911154247556531 -0.7307951563247358 -0.5205514771161044 -0.06866586262321295 0.718625704590069 -0.16328307502366865 0.005644829144845364 0.2009943212396888
58 0.04005959253635021 0.008669953068083075 -0.8458747620152471 -0.033879411235008164 0.24295412760454874 -1.4707772435166313 0.40028689165078024 -0.031139686564426707 -0.2842209448557468 -0.0683485705969357 0.02053114364564634 0.08453021492823073 -0.3136533345658331 0.025403663591650513 0.20568375615513793 -4.051615926792964 0.41559875760426507 0.29880692088685934 -0.09753290337048069 -0.059340570247612454 -0.646778333193602 -0.1195557515559411 -0.6688315410732806 -0.2019857758096987 -0.6131887649038914 -0.48599181580558665 -0.0003819039692680981 0.3065321566079492 1.26459070944704 -0.12365470870537977 0.22248799376196968 -0.3715853185695042 -0.4762950578178463 0.5071823428925719 0.8614842155156933 0.4032411316758092 0.6121551550995427 0.13911529757665728 0.022471553188604037 0.5538392580713536 0.37936977677538986 -0.01754481515588596 -1.048364169569601 0.3589521161352196 0.40391958192308003 0.42103168459633283 0.04064070269427919 -0.12149940658891249 3.5067404016509474 -0.10012807865633762 0.6746460053063541 0.2750371076590597 0.23639581969650847 0.3254021789723692 0.13141692023504456 0.010019660876343211 -0.0005758343735925967 0.26054177377318577 -1.0924086644159023 0.19499867383775227 0.22355735730020665 -0.15355881709043723 0.014446342843958257 -0.07278382267310654
54 0.21905811277079396 -0.24616435297422593 -0.042768481815700594 0.0028239120518317286 0.44312114302519673 -0.04531672339963823 0.3066715081735568 0.07272056633056993 0.18991743370488628 0.01800810849193281 0.005320951995277713 -0.9148865556923289 1.4387734533789163 -0.016078180770919544 -1.117082565430561 -4.077060213413226 -0.470485697734933 -0.556337783190828 0.0006858572219338095 -0.034230645874941464 -0.7017612167244446 0.542457219020569 0.24787804587158407 -0.019317647996737398 -1.1786738571037572 -0.45351411358426513 -0.09059989088009224 -0.6979762476323952 0.051168782249208296 0.20180036486637604 -1.2749149755877596 0.19527098349088773 -0.9667969021315063 -0.6548581544987491 -0.17961401798278798 0.7759910531852605 0.945650151215671 -0.1232236114773244 -0.7659585852845674 0.1319055390506969 1.0480060080273765 2.1410951012893755 -1.2423306356878194 0.05064028374130184 -0.22037856914139725 -0.28688585015337664 0.15401757242388447 0.48792235706713766 -0.3310509250243288 0.5074775355528482 -0.04605234650075657 0.3400617961582185 -0.2158746311147801 0.710780304796109 0.10070334742010421 -0.6478818051775126 0.04615922941881646 -5.141092271816159 -0.9315000468704864 0.4692919906182732 -0.01807521254944059 -0.030150318040220215 0.006113980385001452 -0.7336034786686296
10 0.34029182831222776 0.24043016848631357 -0.5626225389332331 0.03206088547219096 -1.4009789790660137 0.11134613933269948 0.4305245866522612 -0.953413312255455 -0.2719978043328107 -0.09253561318044073 -6.5693179158836665 0.3909587970440794 -0.18696459162752505 -0.008747001539422504 0.7962068295596426 -3.490616433920708 0.27188127907350007 -0.18985366246392585 -0.6591531230778144 -0.1009720780383134 0.5947665339488348 0.3904764436576892 0.3603206953949497 -0.044772192165263944 -1.0461333992330164 -0.3477952908648325 -0.09735205951043852 -0.8193378272401746 0.30994613533090914 2.0283409079790453 0.12258870954674714 0.0010095696695115953 0.82453936335898 -1.0200143869708695 0.7121153169966248 0.9410067885751686 -1.323570791506205 0.1151935223982965 0.1679027014926344 -0.6220321151619853 0.7781748671804678 0.4044592363910952 -1.4535980385092961 0.5041799731836466 -0.08420493005738248 -0.5921901524008385 0.017201989963369222 0.09670515140599306 -0.4012217139235784 0.9802303303941894 -1.0280104835455053 -0.998773809460757 -0.4202517964143778 0.5643273573673778 0.024029513224618083 1.222247054317516 0.07020399272929377 0.3842958794440543 -1.4931853922130778 0.20118106943497446 -0.0015136364854235888 -0.07578913209671845 0.036036233229663796 -0.44760617866382935
36 0.23186772018166904 -0.46191921454303714 -0.22676238499110263 -0.01484012723491611 0.778615869958345 0.09336211495795732 0.9172214286300443 0.3530244792562627 -1.0149311727983523 -0.053152354959743284 0.0265063995156202 1.3418233651866105 0.5268613666910633 0.6819344775397268 0.14859805271007331 -4.329510957568467 -0.6710644272008329 -0.45898548449583115 -0.11805060474323162 -0.16611245602960484 -0.37666714491774517 -0.21277271279452 0.34321686055476786 -0.03434371919783563 -1.235637748868726 -0.7748867048679244 -0.01935999264561363 1.062627467275278 -0.48274680342447457 -0.07447866528757603 -0.08700458611675796 0.393953122360332 -0.22178659601798614 0.08365350266743696 0.9528512392386274 -0.9268456522041361 0.0993733308060241 0.1828969435265162 -0.7104130739482707 1.4314688445884498 1.2193447718072012 0.16825640545666654 -1.3651151153257108 0.4579431940084425 -0.4062821387574315 -1.305170762457027 0.12205955159564542 -1.2198491866166157 -0.5713508774375867 1.409434721696469 1.1004167769231514 0.10812088818644154 0.37629105461974044 -0.6066884814280654 -6.066061241129011 -0.15822772563904544 0.1116496289185141 0.36005463735452026 -0.09067420497864473 0.22856202250326493 0.0683577270199346 -0.20066622463027856 0.038272327287364544 -0.339376618717666
24 0.10661710477938917 -0.03780664111388219 -0.8493036703418966 -0.047835847589104204 0.20924644500848533 -0.5989105406720255 0.1469895035441462 0.20243793359646595 -0.7111316504550667 -0.08847801835563802 0.05286914329597833 0.5316306236776637 0.013644188257076452 -0.5326429702721344 1.018834459661469 -3.7840349071421158 -0.16112252978164748 -0.6059902533583004 0.12983551852441544 0.1031925069024684 1.7088293978949862 1.0153640637002934 -0.6364634906392811 0.5622765297389297 -0.7800072968091826 -0.4422203073368007 6.08882965888081 -0.9976117396340148 0.8265992562153684 -0.35876496804720054 -1.5223581707524159 -0.5771472934294188 0.37738358931489036 0.2819879333226771 -0.1893909272473552 0.8125400747725038 1.0900386770983672 0.07937020803187556 -0.1339882161672151 1.1075015458845647 0.4366121918015585 -0.15238315674238714 -1.5681611722151934 -0.29517731131796593 0.10075428367416471 -0.02286558057955798 -0.027403226081818943 -0.29612092298074777 0.792015794421949 -0.47175987962232163 -0.14654232433582765 -0.5941522524082452 -0.1990349773536794 0.21239410307359596 0.06846804186182705 -0.27619243652622766 0.0007786273310164319 0.2875961351689535 0.8562216391290159 -0.08813000892448523 0.10788998059554625 -0.11449795584044155 0.05972073956268149 0.1069493666340793
35 0.15668654599820053 0.3451140895801133 -0.2191270002423737 6.635422266027232 -1.2007501695628902 -0.7104085309849889 -0.13673942611548648 -0.4388183172832935 0.7387565948387124 -0.016229481754697298 -0.005921180642667341 -0.12043907859304706 -0.10594891993442315 0.4125212609671478 -1.3280928727653658 -3.4873690609979167 -1.0764295914249529 -1.9507298473546517 -0.5842066628250885 -0.0990452022352241 1.7627098898111178 0.14915690132346554 0.7145337011512912 -0.5210254019928686 -1.177084244864836 -0.05549343264885256 -0.08783680618443802 0.3019060071509625 -0.6645103448031041 0.2071267751167006 1.374445937405098 -0.17646836483269546 0.21823870574099258 0.122875587333554 0.9443980656518033 0.44121205766760935 0.5408390520924699 0.07603711126977623 -0.1898679451183251 -0.46011074646306116 0.5582352356821512 -0.24828630656485765 -1.253073277457034 0.23088398569507662 0.21749509622194024 1.0886859848576291 0.09419086148690596 -0.5571775546887315 -0.3132988144876711 -0.08215619945443946 -1.3956805517927882 -0.2275828976838158 -0.3544606401987188 -0.23393661199775218 0.024563536032660482 -0.9440837423819016 0.09888024707613277 0.4459521470396843 -0.7182115026028072 0.17581490431422397 -0.26722366731227143 -0.06591478929237435 0.03432609688376491 -1.0079465254114137
46 -0.017935542239840715 0.20330344260927724 0.5491616564864646 -0.06594376010375036 -0.18368121220887124 0.10576542991813245 0.6164524047499719 -0.0035163663188763007 0.5245059322784114 -0.10729599696108184 0.051116659211649894 0.47796646715483054 0.21560886832865253 -0.42301653907085995 -0.37424246058608956 -4.378570853359052 0.4405450366546101 0.8836460123442935 -0.07422675905014041 -0.15067618722388065 0.48313143768115663 -0.06813319250295867 -0.12820112988774773 -0.09940271193749806 -0.6536189840505399 -0.23728343642077793 -0.11454216429879989 0.38931340579229035 0.15879640168889886 0.06748769293094732 0.13367667849684306 0.5194276371745508 -0.14854888015755052 0.01725908511920228 0.7308320649799609 1.3211770149649422 0.5117567581613861 -6.389026044869352 0.4322545308226584 0.3335633228124222 0.24490240671711894 -0.014088004966875853 -1.3232715559604487 0.0011239735316916624 0.14959998704023678 -0.9838399548153283 -0.3535113099887785 -0.306072585406261 -0.4767406049728071 -0.2087336139404258 1.0904794495192085 0.2513761380753071 -0.5378513999883496 -0.5276849351232425 0.12926701600713017 -0.3757788922350799 0.21014559850794118 -0.6160672956685516 -0.3824667751818398 0.3730968579694624 0.2793289152947695 -0.18910743946385336 0.07543703661005999 0.08519673587963465
11 0.10050918465699259 0.02638676725241011 0.5384883625613585 0.01785857960069605 -0.01713516993999168 -0.2830016903394131 0.011223286896343256 0.15159317626935706 0.2774609528189452 -0.032571213722219314 0.003758330915251036 -0.8539476900664968 -1.2219162069509912 0.654833468000298 0.7299161725822558 -4.019499833655494 -0.5312446871855109 0.9778770431496012 0.1874689480987462 0.009604007291648793 1.440247821963997 0.3094425548749349 -0.3845953893953889 -0.8210545773763467 -0.756224123745338 -0.7309450875341629 -0.06531523178884685 1.3674802266103767 -0.2786172078211842 0.4900766542246452 -1.5072243902816242 -0.20999176851387497 -1.6301714743934612 0.9745205875909032 -0.8349950342790702 -0.6379054808524096 -0.03438100850878664 0.14858906441735417 -0.07650328328773688 0.020614559824022646 0.34471237031130797 -0.7027871153198186 -1.9198077683662789 0.23813099449780556 0.5261381456892542 -0.36439258846201455 0.09762577820116063 1.2514945166055331 -0.5467840453746853 0.5641844625243354 0.7378777628155155 -0.27960453448195044 0.055352829580056495 -0.04235929755434234 0.14193529232275387 -0.2925508877892375 -0.025461831672869164 0.28191605634768874 -1.2762760503117423 0.010247019971375306 -0.2704461315489556 6.725816860759275 0.029506919637381942 0.0861250443438699
5 -0.04009459956504027 0.2687672132398617 -0.5861442482625403 -0.07717731001883096 3.168284793517174 -0.6357837828496931 -1.0453564730994902 0.11370293733301252 -0.23551029814913838 0.00568020823682517 0.03792585233931529 -0.09841455066786402 0.6811029026551574 0.09717184042004026 0.6843971794624255 -3.099497042879936 0.3474909260236506 0.4668905918841644 -1.0837026862166408 0.00417594127418232 0.5313855432573512 -0.14412648177374598 -1.667711938442512 -0.459318860638871 -1.5527199621687309 0.2862249512563019 -0.05041685936792756 0.040132392920953136 0.519622458425757 -0.46363496987448666 0.21459593150485112 -1.5299595976434872 -0.2522780605233921 0.6212553259985326 0.43053960328186075 0.35270547151841825 0.4795608197830157 0.011920599747934966 0.4008508252056443 -0.4206380054892871 -1.5562968004091942 0.017271842134844378 -0.050406567959901415 -0.03411189297497484 -0.0409604042021383 -1.0568377110325693 -3.0417199467078837 0.04227684449975133 0.3757285557732008 0.881367624544244 -2.639363818285878 -0.11119024532493213 0.23989220388491803 0.45556780952856124 0.08133868392459116 -0.8135251911122199 -7.123589666433585 0.3885537487952571 -0.0913091565618161 0.022123082375684947 -0.21354702473554155 -0.228364086317291 -0.02403104662613867 0.3497706223213269
43 -0.07488699700410123 0.057762740296775555 -0.006619216776294104 -0.06939843799218164 4.7736866211560205 0.003772027171330929 -0.9924400258874677 -0.0024271016687895503 0.21766061035893852 -0.056990914974009176 0.054965147999924455 0.3650332832844766 -0.4522925909982516 -0.14384709875724913 -0.6048517138869642 -3.494522655301698 0.2401049144133002 0.3978129515572819 -0.6733589489919005 -0.041181663559991824 0.19652114791729294 0.14783699504722003 0.8632379437372423 0.01751763581020218 -2.1105821614557807 1.032128453303402 -0.0969628665201648 0.7264305997402403 0.5285953355887081 0.6792891430266262 -0.7348624825106328 3.760559825219885 -0.40077620594264596 -0.9554251440933542 0.06467361732162494 0.6678249691416379 0.14176073154057262 0.17773843269686118 0.2146568155471632 1.2852677689808083 -2.248033565528528 0.34260207833908135 0.12553234030921512 0.22837628521664402 -0.04832515898046549 0.37264798999931265 3.8953296518559584 -0.35018662612362644 -0.3390636451518363 -0.6301420518675698 -2.379252827541058 -0.4003536302539719 0.12711208573093197 -1.3654805146056481 -0.12826129363246724 0.2666788977358427 0.3261629853306534 -0.08918423040078904 -0.4089890440598423 0.04421017194469509 0.0019138211638222004 -0.09225487737278844 -6.485894821406487 0.26090496416246056
37 -0.5242183423789636 7.721393633149592 1.3643268455521087 -2.0170516234277525 -0.20259337805943073 -7.039460280642122 0.1833828958829655 -4.105653880659812 1.7548362257626269 -1.8458349850733275 2.2366860219322695 -1.2499608949134131 -3.5931950251930984 4.416524185346252 7.201388039218111 -2.8304896997925604 -4.555156866575536 1.7444632312067732 0.3336266346744931 -1.0286204561403816 -3.9256552944213046 0.6872174410239605 2.057570828383052 -2.809084783199177 3.1315158568082255 1.6830744739012784 -1.5507538483856638 -0.4985032861525104 -3.9746812599326504 5.77972889209767 2.7941366865362074 -1.494564285200418 -5.113914947300588 -0.8676201396014148 1.5633061559471606 2.681911309303087 6.074670116555993 2.0777251311964227 -5.862313562729698 -0.012010088925083153 -0.8504243238263403 4.940490910265582 4.2686508183371235 3.7704010745938934 -2.0613324214544044 -2.4222966666122816 0.06350692121001245 -0.8623519246192048 -2.434030808152158 -1.667003837471751 -1.224653997769068 -3.3863906785664395 -6.994529879946902 -2.031729536997559 2.3116538302283938 1.3028866876330119 1.0565333905408094 2.0236030478679656 9.249871365603603 -1.0526983789777336 2.0574204052838008 -2.057371700658007 1.127251515012187 2.62020360817111
15 -0.5323696437712353 -8.428898867394183 -1.2945789917212736 -1.9318799668306987 -0.6630714706248139 -3.9428606932922308 -0.97155012416088 -0.22082872657662012 -4.416147839454732 -1.9868130041265395 2.180332917059761 -0.29928807991992556 -0.2924155379528493 7.770342973252884 -7.093516366225828 -2.8636487398108192 -4.671128966649662 1.4374836899829924 0.2959921011860553 -1.0428566152815917 1.3726025381162306 0.6578691602695749 1.2560972528810834 -1.1383415772908674 3.1320758907194954 0.31637890219315573 -1.437402975164254 -6.734665987352532 0.9879729444963279 -2.7358465624141846 -0.23580536636914495 -0.8399235431000517 -4.255147453187823 -3.44160356463558 4.297753278987488 -2.636083390080162 1.88338942722648 2.1232107663086195 5.221329866693944 -1.2289056221951613 -0.3626010932497117 -4.0479082369766095 4.154294507003115 -4.309234189657156 -1.8127461591094625 -9.49256556328283 0.1149756606254934 2.3973465088242185 -2.231956280703257 -6.995053762410927 -1.283615539307189 -4.302124803953419 -2.691444776425147 -2.03238614188097 1.9141567311029741 5.4238854698098 0.8624509802477298 1.7805949734725757 -3.1071977441758385 -3.904037810640952 -1.749159785740991 -1.8753731564129719 1.0762534596461533 -1.1207605735109267
59 -1.9944938294327659 0.38643759605140343 0.04995718073162629 -0.5555199208835001 -0.12917085797087044 0.02608554629742371 -0.06289377892369791 -0.7137216692439712 -2.170978863800049 -0.6047973777780055 0.6555390159875367 0.5511942569429594 -0.7589689207241823 -1.7410609285528504 -0.8545213196790246 -3.4497328223066175 -0.12123027012557164 -0.042870237798955345 0.36090848473881526 -0.42396019150849956 0.4494572698720455 0.5491874697760935 -0.5400102031863062 -1.10187498227071 1.0480444818070342 0.3638924297041856 -0.6250054933455781 -0.0014798318668658285 -0.47711752521823264 0.04657635715473524 -0.005031172988973196 0.22299074154716536 -0.6081427268307668 -0.28470610076468783 -0.6506989452339582 0.5338927685308147 -0.5792561263412453 0.4674465428475447 0.44483113848150824 0.22697448575810253 0.1879612993879993 -0.04393269005103562 1.9907451184504232 -1.314441625264234 0.5522831249055618 0.8222389227522687 -0.0669334847031854 0.37075799315575053 -0.5695157977406234 1.7811289530213767 -0.42381008548647303 0.9097539605353504 -0.6235108903400032 -0.603433109531268 0.4763010110435047 -0.4568637028887377 0.4340983720002395 0.4865208091677572 0.029825689562438813 -0.32044747420054975 0.33186630115525334 -0.6458500321745229 0.5789056817806738 0.3554832863958506
74 -1.770113553847829 0.1454686288462414 0.3183588207517404 -0.6149940496223514 -0.146574599604735 -0.18718491468537296 0.01144917820157633 -0.4967717491673051 -2.004358840382408 -0.6575744743493254 0.7030391104935049 0.955859235173378 -1.0468678645597758 -2.6177745598863718 -0.9844636976847501 -3.305848897277748 -0.5844944816060993 0.03367884563040316 0.3176951773691894 -0.3693029176028027 0.2506167352584129 0.5718011862866669 -0.4506213344097841 -1.5078033352552225 1.172258713284364 0.45986028014978675 -0.6367156702108973 -0.14248253009806405 -0.6399860889801593 -0.2705230690380276 -0.1547978873421088 0.3525806590326064 -0.605709218388242 0.06004393483861121 -0.4698169199809931 0.8428937168239258 -0.649970460934926 0.47378882067430084 0.28089120913736365 -0.11795620368119218 0.035605927639398106 0.1894931793830338 2.057581872414836 -0.956204931919667 0.20303958948089673 0.7186119338566523 -0.0020776584461520507 0.29459148836345506 -0.5823884154907771 1.8435842747365054 -0.48264601894276743 0.20539392884738056 0.041661382639483935 -0.40280415276245946 0.5304240488000086 -0.5450842128097859 0.49722302842957533 0.5539599624975248 -0.12606900058577206 -0.8912526448990976 0.23279844413241962 -0.6653335120629362 0.69667674632131 0.5154603439203596
6 -1.8664331668728356 0.1776676045080888 0.6364214214977348 -0.5868255153108041 -0.020663523639243234 -0.38613410741121973 0.03362816871263723 -0.14647603700510847 -1.9449854026925648 -0.5304928603034365 0.6764286297035508 0.9775357220138093 -1.1408078270139632 -2.3950512115680707 -0.8247660853690713 -3.3937870549738967 -0.24703861282316203 -0.09342666904376173 0.2836243547681515 -0.3261663550635264 0.32588158599618294 0.46061427823382234 -0.19415312138290783 -1.1890774894974692 1.128389178695314 0.45794624466609213 -0.6138264182828697 -0.23549111827295868 -0.6627262708351153 -0.5592475487003276 -0.03109497519486029 0.29229337418393314 -0.7571544557619578 -0.06826521655266089 -0.32042249052830235 0.9196789623906878 -0.7519277229801173 0.5024339359468831 0.28224408063204653 0.0957890743128164 -0.10380956175742738 0.19183591768298067 2.010637959677627 -0.9707603033642564 0.08537909233605744 0.7773309622252393 -0.04999532406096764 0.359332615211058 -0.579053577294322 1.9230474545237206 -0.3766560367135055 0.29940404415009203 -0.2672121308322316 -0.30081959270989006 0.5673092141083217 -0.33441028598028916 0.4240710354933291 0.5357187616919199 -0.17541722160230655 -0.42472012825721983 -0.038796963690135675 -0.5821892569528719 0.7265538131331447 0.40605980919838053
18 -1.9551408498130083 0.3131077075279826 0.09133259484531511 -0.588690387150958 -0.11503790124188164 -0.2718921552758057 -0.12802798254365416 -0.4527760613242486 -2.012349379003167 -0.5935287454598575 0.6924415710173447 0.6287918257991812 -0.7731330983312331 -1.8888367183568524 -0.9108486662579721 -3.482116972559387 -0.1324884138381369 -0.1264112840621891 0.30381355307289654 -0.42743142348714447 0.2973377038078781 0.48280780958003366 -0.6194057421704212 -0.9634878421190214 1.072134693422533 0.386474716881961 -0.5935419389198953 -0.11819314422005167 -0.5866052573156635 -0.04785326376001183 0.08326041414440195 0.4217497294619227 -0.655785854645263 -0.18281493213006786 -0.5302758672882916 0.5562039351057758 -0.7669399023999707 0.43624888788941846 0.4216389281193332 0.3281431483908929 0.06424330244602071 0.06550599088557474 1.994821024969869 -1.272259072667494 0.7131383069224324 0.8759584572665053 -0.08089488410054359 0.46703634945863237 -0.6380561852864692 1.9143037759587056 -0.46774898350440586 0.552519187845844 -0.5112682136120418 -0.5490939051421154 0.5149024765609117 -0.45129761946982233 0.4603780013224075 0.5030840093831808 -0.006410257258755505 -0.45429781742986486 0.37319231281624843 -0.597557278758256 0.7233325054316695 0.4032896854714405
39 -2.110579788206287 0.47140843184208187 -0.8334279556089819 -0.7909690483971207 0.10497868384005143 1.173719595420036 -0.16257189196820382 0.018798040539731616 0.5146908546232272 -0.47507034982375906 0.7758776495477249 -1.169912272869928 1.8677026924945959 -0.36703244858243805 1.977342148917741 -3.3286843239865815 -1.5830450138215904 1.3884892256390469 0.03260190430213015 -0.5105679946010799 -0.7321342784971087 0.044059680183555446 -0.6455039046588883 -0.817679658722203 1.1093860475369866 0.16286454338744893 -0.6079874654608671 -0.1818267680128135 -1.003415248287004 -1.4880113898641394 -1.3888639718932716 0.08813973572768219 0.7526899565981081 0.5026181833263517 0.7155619368457401 0.10319405973775939 -1.1990985417325235 0.39430403459455043 0.02576158893082544 0.1114388363659475 -0.6515862393617993 -0.5728264520000118 1.9627108089144476 -1.0706315625539238 0.6047317150883694 1.7712869916725378 -0.04790918243147031 -1.9590470274811123 -0.6251969317630365 -0.2567046166634947 -0.6425663758434313 -1.8750034240952698 -1.0158173188095605 -1.5992906731769088 0.6121122901451707 -0.6162356282498449 0.6779356896315292 0.6752573759823727 -1.9244192446355242 1.3656355097358255 0.06395376399936505 -0.6268251791894933 0.7379167418544622 -1.3588185704295759
72 -2.134189950054628 0.464903110234132 -0.8434506358302285 -0.786375904390236 0.12218565441233346 1.1955473681461943 -0.1811092332065765 -0.060105779595988236 0.5816047566865835 -0.4873906487948658 0.726336976960986 -1.1700815172481889 1.942540976739772 -0.48439391944947496 1.9232369117312609 -3.401453512205635 -1.680285423004898 1.4298551192869666 0.13231275244785923 -0.493390622507091 -0.7382135591416242 0.0881074665979795 -0.7463952802858876 -0.8661408377119301 1.1141983583920338 0.21833475294714588 -0.5804670440762016 -0.15801829787329513 -1.003525571560143 -1.3730208481910826 -1.4746278295806552 0.19975058833497691 0.7879566704212169 0.5496187862157774 0.763662381456985 0.04651421245580957 -1.1292186755799027 0.4425068927525722 0.08557739057289056 0.030493096759858614 -0.5843073006201032 -0.6008465756631528 1.9883397184454323 -1.0678947764042517 0.6382330969616844 1.7663358109651568 -0.04960438970651513 -2.0157130807957615 -0.6556162457773858 -0.3150314896965456 -0.6373049471761664 -1.8147542587530554 -0.9426940519578079 -1.584892892082942 0.6229470264649928 -0.6396354205767961 0.6972709241896954 0.7081293600582996 -1.9333122980694417 1.2907823090088506 0.1418001993573412 -0.6440429902668235 0.8106333922177429 -1.2900859555652784
9 -0.8329141688966247 0.17512003984541774 1.506729282257926 -0.5433932985367702 -0.03943826752219146 0.8942819158618084 0.022066803716180878 0.21990043932321157 -0.9452039012370836 -0.5310523389414284 0.5945689241943891 -1.5147203399088243 0.6326272734950885 -1.8250372062301443 0.08573642117179012 -3.437941051571617 0.10919675820767048 -1.5203788806823106 0.23441386590966398 -0.3547664238251205 0.29774273900200654 0.5425309248821785 0.19874597168374777 0.6617838771755244 0.8788784647674124 0.4812233569416443 -0.5691497032950862 1.884288353619777 1.668834239019449 1.2283124794637745 -0.21720039639024627 0.1631374706512417 -0.6402564949490296 0.40167634945898884 0.4501260756379334 -0.9063906736615366 0.2522395401002222 0.3826276864809921 0.4137248296079759 -0.6152182633988091 0.06448041597340323 -0.48764976841690644 1.8589944398032296 -0.4142155753832293 0.09476823187696402 -0.43678718368464126 -0.020765476364576763 -1.2827788128577993 -0.4039028371344363 -0.4188075351090356 -0.3160205827346352 -0.7863756203937433 -0.36720467837846626 0.84974750492607 0.5043333915595745 0.29455503733253163 0.28779036317635803 0.4794205985991425 0.16575655337443398 0.05501955589042313 0.22393679877089417 -0.5516377478689353 0.537569300426029 0.04848493440287051
48 -0.8886087571551914 0.17479266052062392 1.1594934378134252 -0.5082491933252936 0.026176587186034 0.6932945324665035 0.04912446034242178 0.3585977957689221 -0.902238774483885 -0.47602344300312505 0.5375190002644453 -1.1348994402318193 0.6294038821617863 -1.6950921401980332 0.22097015973848858 -3.4321521670669344 0.10551725589274244 -1.2656806851964633 0.3068260797199265 -0.31389884926330824 0.323155937295383 0.4899963166140728 0.2320290439007546 0.33630988671708867 0.7972662582340612 0.25411830274916947 -0.47194003767643616 1.6728987388522123 1.3196066107946434 1.1925396993164372 -0.17551456159867135 0.18142872666651572 -0.6121284869041536 0.3859261427845497 0.3200916002747502 -0.7835887097268586 0.12464876452472934 0.4243856403668437 0.4359210281297234 -0.7527566015796855 -0.0505639549209346 -0.3364430043975885 1.8124292550452004 -0.6632176585245956 0.15615439740451412 -0.43256487875540983 0.006196550176535393 -1.2461662754425957 -0.4426184448176955 -0.546124084349453 -0.2225831436954711 -0.3393556258018284 -0.3183049652869473 0.7074335629331031 0.5083270048595959 0.24771253178507374 0.2550494814523297 0.4635651039776328 0.058854791906255345 0.26086264066368553 0.41500247729382544 -0.48382480064162003 0.5166367977545038 -0.09010134140096838
32 -0.6952372801069822 0.19382686664469903 1.7965529685248025 -0.5407684554165292 0.03485675139739711 0.7084627675856826 -0.022194586469445225 0.3587795846845598 -0.8295072015088715 -0.4939203545093096 0.536998568281747 -1.562794227029353 0.599591862511544 -1.7317049986366042 0.16328509302827218 -3.313941208085625 0.2968605176580071 -1.7376006371019967 0.28505957501383994 -0.3801362091171363 0.2051957424595212 0.49590622604381746 0.3156685727110178 0.8942330269351759 0.8584001940659717 0.4418648773167707 -0.5224682947311556 1.9765535310387867 1.7627494365906158 1.117409509693832 -0.20264661105219048 0.15642212871189812 -0.6292791304370504 0.3386809252510744 0.5629498836330792 -0.9515095971804881 0.1726793657413294 0.40213865971041673 0.3837162714949798 -0.5068753334042515 0.04212043097286154 -0.4719788004067715 1.8715418378678155 -0.6402947551119025 0.17328159009811353 -0.42392183682497725 -0.08398570211194695 -1.215911705507631 -0.4399136462699115 -0.34136705247235216 -0.1951391573011859 -0.8818540208654687 -0.5751539375434725 0.8265894731776927 0.5402878052129438 0.342886860059433 0.2234434965159635 0.5024030476355186 0.12806176626222748 0.07933408486451715 0.1973851574894055 -0.5245534307534151 0.5285965184783122 -0.06572324415115227
70 -0.8348955781667479 0.18049329830610147 1.5127059748761515 -0.5523733265922853 0.04197525735599856 0.8155095377038808 -0.029856397711849475 0.3445527909309164 -1.028071205335714 -0.5119945968768014 0.5676765491010054 -1.53351695671101 0.5881606230792842 -1.7652019738842546 0.15866661057644862 -3.3864584191203213 0.0387470590503099 -1.3308664856918904 0.17302405760970718 -0.3491864459240912 0.24902393589351912 0.47873060731468037 0.3274602944706059 0.497359379794876 0.8729827233263215 0.3179298194759559 -0.5173701046626757 1.8008867537397522 1.5816148763990214 1.1581081982943746 -0.2636996010299878 0.07418228520097815 -0.5552470045347557 0.40400055791436434 0.5021963155480588 -0.7526089901785002 0.12116598570793399 0.40115418202460945 0.3438927876473091 -0.5954787923452706 -0.037500441729097826 -0.39795609854159425 1.8699830200350411 -0.5243385265567997 -0.06397179633539879 -0.3065268643422721 -0.0667819105478937 -1.3074297706798008 -0.4138608658628357 -0.4892006565614784 -0.3230322422345492 -0.6118769542553071 -0.3407980347448406 0.7051716193116804 0.49884933691055894 0.27501270126210187 0.2964673653286977 0.5258921643413571 0.029918840168389978 0.1714086696475062 0.10102952761606639 -0.5202530875486767 0.5679141692104506 0.00020979184827898508
47 -2.2335447719246466 -0.2956750359865323 -0.8143056508030798 -0.728136814130062 -0.2639875640076083 -0.243995245589697 -0.13981547383577508 -0.8876751720256985 -0.014454194770844649 -0.6332037038633775 0.7590639337564481 -2.848387899249232 -0.6600070652039159 -0.36767295555546614 -0.22139700054100894 -3.5793122388572534 0.49078298328383785 -0.09076314407034956 0.15802898193490397 -0.4269770749662747 2.037702670609966 0.2780614415046903 -0.46710160754562635 2.052562809773504 1.2452814430485222 0.1910507328447188 -0.6626511307389759 -0.2040248384685513 -1.7037670933733127 -0.6811894432952003 0.06520803754913183 -0.3044617602909352 -0.93922371799024 1.039881450574677 1.0696717462742276 1.1117011707908055 -2.830188136701357 0.41699590861016006 0.028716608673816254 1.390049170541391 -0.1442064884611034 1.416118620126795 1.9434043641597192 1.376129484821622 0.7854774328998557 -1.189435052724297 0.08836627124427211 -0.742008323930945 -0.5474897984228967 -0.3482376116406205 -0.6096882916472378 1.1500226401266105 2.546125096601023 -0.3267357616599439 0.4761843275588006 0.26289533016660815 0.5575470601018938 0.5754540497568277 0.5969523015942211 0.43363786640062446 0.9792548128756691 -0.6499010786132485 0.3588452540153205 -0.10845189148363754
50 -2.2490380662894824 -0.2862499195040752 -0.7214230026924252 -0.7730236503394439 -0.18705505168233927 -0.28473028852255655 -0.09533545170312585 -0.8751067929282886 -0.0858081236616594 -0.6645943665850533 0.8131964291647277 -2.8767382552980214 -0.7001978173984961 -0.4500119141864918 -0.28428358429560074 -3.4306759610964264 0.5535041188355394 -0.16747525882633213 0.23089767096281213 -0.4338842641114893 2.0144441930402195 0.34696919551515 -0.3237137865641027 2.0786197347737985 1.2209557544348364 0.14582631609668179 -0.664916361376458 -0.14586705105397801 -1.5488469873411308 -0.7963313880021355 0.02812135309886154 -0.331335992503607 -0.9190202960222412 1.0466963985670128 1.1267223659298657 1.1366922708062253 -2.958833576794323 0.43566262856256727 0.041326007145650864 1.4136046846721688 -0.4356005571766376 1.3915839133132024 1.984707927614648 1.5223207094906395 0.7196699909693128 -1.1826694504408704 0.12658801885413173 -0.7481941617859758 -0.6279339499410865 -0.23757130553096595 -0.6162734627538804 1.3379014182512459 2.2852790841259187 -0.25004308394779545 0.517205521097423 0.2808496185664998 0.5969853300579402 0.6574338267480471 0.5687841113938299 0.35129523301862076 0.8797831647452414 -0.6438322234570644 0.43223232211713125 -0.04096693751048757
53 -1.918955270034835 0.2609122330044806 1.246085196132504 -0.53038313297403 -0.07749888444982267 0.3798475445695868 0.04640636827251059 -0.620898230757588 0.7508396084950383 -0.4626602371546599 0.538608338811377 0.14823069895581636 0.04523622832846543 -1.7445682707199204 2.5588451982605087 -3.351968155238552 0.5754963394033715 -1.653399863941957 -0.026052093016442655 -0.4026930066458195 0.6034758434212675 0.14523436251512017 -0.6213275639034552 0.8707618919286448 0.922006171477302 0.07916005302365063 -0.4562911167559665 -1.9191904186530249 0.3436464068021972 -0.5613904213424837 0.7490485464988612 -0.6884363605555972 -0.3804773613656742 -1.4406523190887126 -0.43718558503675725 -2.3516004538031576 1.4914076170855057 0.31607202598184264 0.3659383437185343 -0.6864571478071985 -0.20571019895586565 -0.06780920048883295 1.5685096375170917 0.9836975354298801 0.13346944346073233 -0.5654830296529528 0.07026170484062888 0.8983691053745974 -0.4385516886235241 0.4607600490914189 -0.3677547454854385 2.15374124456477 0.49461467647365986 -3.3615772472333334 0.37095595542176407 -0.4583369997344501 0.6403354280546494 0.3607480931453347 -1.9960928221551646 0.1037486133578004 -0.49254739927143715 -0.4826449473869918 0.04077590851480667 0.1408810778306533
13 -2.0737488842283116 0.23843445462832566 1.247661018595951 -0.4691491125050217 -0.06903375462814251 0.26161728040513815 -0.018016968109148948 -0.36217432954521156 0.7464426384485744 -0.41865680096460983 0.5179495396191893 0.26714360017021416 0.07291942784096715 -1.7688059353616075 2.559853176989529 -3.501792931806356 0.5564346680833854 -1.5801226264155044 -0.03288812281186236 -0.34742955915087065 0.6017738154597962 0.13294560958454196 -0.5278918635005286 0.8281733467687035 0.9807241895222814 0.15087543309544107 -0.4338211043481414 -2.049842260126581 0.24170769881137033 -0.5490584614386259 0.7359927907631342 -0.729782688706811 -0.42437993590605644 -1.3757255174330614 -0.358882936854486 -2.2720308007649135 1.4267545638281272 0.3494819653949796 0.41057523732894147 -0.7465030870847799 -0.1506175168009352 -0.015431794021206114 1.4920934878102552 1.0232030135721852 0.02691261815180784 -0.5199418105841649 0.06190293153405336 0.8409404256239557 -0.4596005731575501 0.4063562979879326 -0.2824081589636412 2.253770579820461 0.4986781681874786 -3.2914826275298794 0.4069435322610363 -0.4199804514339695 0.6409176369728345 0.3391350856311296 -2.0322507539910735 0.1960172189880328 -0.424500623956576 -0.47261617651576243 -0.014181394046640351 0.3322857734060389
56 -1.2219925107801886 0.09370875873258802 -1.525558811554542 -0.28013901702137733 -0.0953727554517808 0.26574177389304104 -0.05237190559406736 0.8527703704270735 0.18030104856425092 -0.3713111303987555 0.2991767440157347 0.6924693880716185 0.5101303165509061 -1.1411255200818045 1.1091535929845773 -3.258867854352782 -0.0055139809757078296 -1.0930734437643161 0.10990425511695176 -0.27924601796393245 0.47194537409717274 0.10945840272964728 -0.21651882693760782 -0.640075549425237 0.6372331634616755 0.12801365222036218 -0.30270477380156 1.533937344340816 -0.5373502776629238 -1.4474641607791805 1.1735568993102903 0.6191640935769307 -0.8894365605366688 -1.1701672313620148 -2.930030884622193 0.10459906779467235 -1.4235653967200528 0.3437576847877502 0.29619932302635554 0.11280232058827132 0.15509539795330476 0.468273277681962 1.2358902007470667 0.7426630352659329 0.5759582466808558 -0.9647378114652319 -0.11341557182283792 -0.9013269370030201 -0.3101112808780105 -1.6834330812223703 -0.08217512013919691 1.2003701307233339 -1.7550155969166579 1.1297890057507551 0.3190226458529147 0.4023614498814431 0.18694598543204546 0.2029108465692655 -0.9916486317366215 -1.4120658464362332 -0.2223312599794046 -0.3279294591707759 0.4521793167732848 0.1889700371796266
22 -1.1630028046696228 0.031879565937756295 -1.5255170879766409 -0.26357939920319395 -0.09351701311881076 0.3087060522178421 -0.05953906339427626 0.9396753380076969 0.29014911100148916 -0.34406694608261396 0.3244234927720999 0.7418390927038501 0.5526351141082819 -1.2522749719705335 1.0801043109514543 -3.367915750222707 -0.10020384263117937 -0.9604854616857174 0.06012862963750141 -0.2895200073638969 0.44622142491376726 0.10852712812453444 -0.26315842504314063 -0.7099772282398675 0.6119886829382742 0.19711289455913147 -0.3134905441796909 1.5227330536701686 -0.5703053287839792 -1.2726778762333444 1.0685168845745816 0.7124837376271197 -0.8508146834290417 -1.035838331361016 -2.823518690196801 0.12271322821865467 -1.3847702706546436 0.3763107379072409 0.178667566020327 0.048504549679252315 0.13142899784383055 0.4271614670074673 1.2665786503104697 0.6393772769808971 0.534900398537246 -0.9812450942628945 -0.11411533019964389 -0.9908673791504825 -0.2985823576433768 -1.7638316425907612 -0.11264145030413741 1.1079427773654225 -1.7525269615285453 1.1211090354594562 0.3305993150546907 0.3902847220985243 0.18008618183967443 0.24866519817512742 -1.0264354476704418 -1.317066053804061 -0.2207983296062627 -0.3595418725688583 0.5593268452881047 0.16586490746033578
1506 0.16615444953626254 -0.3244437257227962 0.7523671407803564 -0.06215760723161943 -0.20402339662613508 1.017368356741134 0.007964209875933043 0.3653764012705457 0.44419189835055584 -0.023851327906713512 -0.05306042913765811 0.28035713879975616 -0.3653124388160731 0.5649066892527695 -0.5878830941634565 0.7994413573281063 0.5339421882204453 0.5453014620157381 -0.3292805168184689 -0.14783455128346978 -1.5844061986131477 -0.035038370436572076 0.3711842035237392 0.6801363359645968 0.2282668023066671 -0.20377100293843808 0.010862398451230838 -1.1428491841201627 -0.9999281900812181 -0.33524555203357953 0.639709165468067 -0.1572357911619751 1.0716196158798956 0.7040434177155415 -1.1088030966428244 -1.264305807536154 -0.7242124749481242 -0.024218760028971647 -0.4892142214942496 -1.0495966735139024 -0.11156909204262719 -0.7160231703266575 0.3471815257361404 -0.4252071461088593 -0.3089347057588986 1.3053419440559368 0.043262636798749705 0.6367809971532717 0.09124609527552464 -0.7423180635478623 0.6669729092289814 0.4437950397412205 0.17729862114100176 0.7224781435941423 0.024202430568780103 0.7490182254732621 -0.007989797060128869 -0.07151729488795812 1.7671732723123132 -0.3398300406859617 -0.24943004631886986 0.08061606032999412 0.07705422270513677 0.2863130369698472
1154 0.08288693422019813 -0.33912326009146115 0.7653483940644484 -0.06145507952759865 -0.23786995752351267 1.0288802898271463 0.0031656761019573706 0.36457314107684224 0.46653173318630226 -0.0257445408046942 -0.01975394177026774 0.2659116439467541 -0.38312298609970125 0.5931176153801812 -0.5390967050390892 0.7336376271033013 0.5114145610012963 0.5621222768058523 -0.3763020102855073 -0.15410206559102915 -1.5604560885778767 0.036792623666509976 0.363984635002264 0.6863949289343021 0.20369744130268436 -0.22937713596149692 0.04799575429401495 -1.1664551006602957 -1.0026499804977165 -0.3486322583580608 0.6125396907616133 -0.21407891708351032 1.0674962014233191 0.7167776445902988 -1.1183680646005778 -1.3023778533841963 -0.7160221962804695 -0.017553665014582005 -0.48941593915148396 -1.0454354380608122 -0.1504868843196691 -0.7251899469082632 0.3216941160054977 -0.3885669012892196 -0.3122104867875567 1.320692394673692 0.03445568550769199 0.6629853473537525 0.06311554633034545 -0.7473655397288469 0.6096123556432808 0.429697932710641 0.19068131676959874 0.6957740450868225 0.029605737765794695 0.7476023260553027 0.00935146385335671 -0.04846575924146393 1.7236814707606005 -0.32510267176791485 -0.2795209697243354 -0.0692653381038797 0.04596441186997823 0.2714508193742317
407 0.010550873044218723 -0.345147749089388 0.7655040970803932 -0.07130139811737377 -0.21489652785306623 0.9939080165778207 -0.014759383592854078 0.3394399849692778 0.44877099737987103 -0.053356036640116934 -0.015514427590510922 0.26214019168197383 -0.40544511395136834 0.5785899718124067 -0.5857339456510626 0.7226525542197864 0.5438298712190607 0.5794228433821427 -0.3502724233452385 -0.1526635804114596 -1.5475954610552194 0.14465182304971366 0.3602947220793417 0.6937350624495551 0.20280232244582808 -0.22209981457039607 0.04019070535370135 -1.1768312362400664 -1.000933402613425 -0.31880795666317674 0.6050092353808968 -0.2110213093684032 1.0661898382815147 0.715632249814923 -1.052775833564805 -1.2536204457572115 -0.71900432648165 -0.003606235345200936 -0.5024404070397493 -1.0309055322769094 -0.06662420970997003 -0.7093712979351965 0.30313249319450397 -0.3927941583907592 -0.32179747516037127 1.2886820767754779 0.04979452466290116 0.6601235625308517 0.05325691364314424 -0.7009173262619188 0.6641113462666343 0.4522809356246997 0.22068522117693762 0.6789321822429333 0.04319469597301713 0.7369064578579996 -0.011527556221595878 -0.019063238567096977 1.7600543847854637 -0.32397470509459786 -0.27446995486925607 -0.04990246021218737 -0.01081699737488212 0.28487235892568186
1185 0.13223234297785808 -0.321420498122108 0.7618138011993335 -0.05690766199619535 -0.1967899380703016 1.0163362726235472 0.003964660955186143 0.33640019765225154 0.4399349650605668 -0.032170492807865 -0.018220222189560153 0.24889489490778552 -0.3961412067972556 0.56508182030642 -0.5513782033368576 0.7369498223341607 0.5131606103595276 0.5476937826813258 -0.3648234293929754 -0.152306519917475 -1.5546678791037716 0.022981460184158368 0.34579962961602356 0.6996917138918105 0.2388166885911618 -0.21608094498538755 0.043316366956464125 -1.175863945973739 -1.0123341628560998 -0.3283206117091208 0.6046400830793239 -0.19712334480353433 1.0593990224815817 0.7298654796165072 -1.0880169404753004 -1.2706246574480624 -0.7432871966241134 -0.02274618772161407 -0.48030938181696264 -1.0363105314546066 0.12241252323606461 -0.7099422189595981 0.32091362131387824 -0.40098367766360743 -0.293298043492421 1.2977514514666302 0.022694765939776256 0.6432334577118632 0.07804833357706344 -0.7260199507005245 0.684110027229511 0.4149291735173017 0.20447939347449579 0.714972399706122 0.02878061703131135 0.7439667054229089 -0.018005412927603336 -0.050960452436675394 1.740615905086809 -0.34968826969161937 -0.2576830352457317 -0.022996332488123793 -0.08891310625062157 0.24550624530237264
1363 0.06764077161142362 -0.34624693512926147 0.7327675078675582 -0.07872411348930468 -0.22029585709343405 0.9976443531136961 -0.031759429647283316 0.34869107735366134 0.45661536960556315 -0.04203531650186199 -0.007811057226575506 0.28802012003231037 -0.40336431436513503 0.5799661400642703 -0.5524729481677715 0.6966329583667998 0.5156777319658293 0.5702507582230201 -0.44445718500454073 -0.1553466111843988 -1.5487655155066093 0.05010835813282816 0.33824747932999805 0.6801772270304284 0.22887429969664227 -0.19333862993659193 0.021050360657867792 -1.1710041423846302 -1.023516234716854 -0.35619542476832133 0.6086677011419358 -0.21774379512623573 1.0403086589190371 0.6952835757287145 -1.0998481355212657 -1.2824176951371542 -0.7258261023416804 -0.02867084995006939 -0.49957648024219414 -1.0440564696580532 -0.07578519492619769 -0.6982815069259494 0.2954674634842291 -0.37351646199096467 -0.30722886075185024 1.302196937391405 0.034914237948737416 0.6771013434590855 0.07116374236006559 -0.7219787148725169 0.5442039233801057 0.46728873112845837 0.20680371425435481 0.6700597876907749 0.026685148738811056 0.7272598374375723 0.0008637280932961703 -0.03898190182942749 1.7252030366806554 -0.3359812900533738 -0.289244417336698 -0.07425569033597063 -0.03504405341118744 0.2702667036512261
1677 0.11383362360610161 -0.34353038214406456 0.757435740976268 -0.05991656914556937 -0.20443815997844877 1.0237876538933244 -0.01497256032787182 0.3439788341267696 0.4597566786654133 -0.028816622363385346 -0.018904864105229766 0.2569786055452366 -0.38003297899227934 0.5931012667272375 -0.5516361610640714 0.793302014481515 0.527355233941613 0.557753346089543 -0.33455022942847906 -0.14777053799358436 -1.5515720891479448 -0.05670770722975325 0.3510194940365576 0.7130437517803987 0.22998017427603068 -0.21211215293360158 0.03854048689813943 -1.1861740318154521 -1.0141296253791157 -0.33777398396720687 0.6220586807170074 -0.21229837270015608 1.0743293140138122 0.7078794635724988 -1.0817111291858894 -1.2813007108380572 -0.7355267917932645 -0.030204626346970458 -0.5036839440715503 -1.0342803843447377 -0.14071014513370161 -0.69605189473698 0.3311126960785658 -0.3810498892977295 -0.30012480278634607 1.3030488315794693 0.04366027441791943 0.6511531476329668 0.08075357365891814 -0.7457118109709819 0.6111945585429868 0.44898517607556293 0.21145640592974718 0.6847071365060446 0.027800180702549884 0.7474758488915039 -0.0015607115599497467 -0.053197133125860156 1.7404755621016599 -0.330687626568596 -0.24112173379621876 0.0014655563895954458 0.0073315520572410815 0.2573392462203059
921 0.11970733343292798 -0.32869356233050506 0.7905613083393888 -0.04395203841829147 -0.23041057983157495 1.0148138946917622 0.003513402446719695 0.36030554287842514 0.42828840592849476 -0.030488638027713146 -0.04403544994002321 0.2785439935452453 -0.36809721037549165 0.5667902990526739 -0.5462359323987772 0.7408965629347469 0.5245797379896777 0.5053136413226053 -0.24517360801345658 -0.13806494425274485 -1.569259418227863 0.07269904791163678 0.35334603541019344 0.7004436367693794 0.216914493899359 -0.2011784113525965 0.043034351221589634 -1.1735392630545565 -0.9767034993431947 -0.32435272050296715 0.6186056109721992 -0.16761278717997227 1.0558970544395265 0.7129927796699569 -1.0797334576650992 -1.295029218436786 -0.6902254968335482 0.005228348841715149 -0.47818396957470743 -1.056646672823052 -0.2001936910438473 -0.7124516346307272 0.25692166596552746 -0.36681084066899244 -0.30704984695711846 1.2703531167570044 0.03178757297995594 0.6306022754056622 0.06281018270252699 -0.7483102069958742 0.6955968259785298 0.4474784930770521 0.1842574688732706 0.6923373381826801 0.04466438664509152 0.7430585386739108 -0.01067317345728302 -0.04589911238843508 1.7268472826835235 -0.3360457736484267 -0.2730396739605188 -0.02782723540433175 0.04597715388562427 0.27119123704044723
398 0.12040396866313093 -0.344218754370935 0.775877283250912 -0.05997961123481764 -0.21734647386443623 1.0366549815846113 -0.019307241109937062 0.35090715469749284 0.4534470673746035 -0.03926872084378521 -0.03489020410496098 0.23318652011239452 -0.39139376498697354 0.5663431819841497 -0.543824191329529 0.7303617966106238 0.5216256272272674 0.5502722975406459 -0.2647813325828564 -0.16201723962118056 -1.5627969767606569 0.015381633485792313 0.36708439233615286 0.7006192957258621 0.22798434014656035 -0.19108215539720758 0.09175562584557742 -1.1757506338689276 -1.0227039814623935 -0.34521747526000796 0.6295173242653717 -0.21891189082450796 1.0540411540546182 0.7188646814332551 -1.090104471813602 -1.3046041805463267 -0.7411204554276787 -0.019571304616150052 -0.4946493993226323 -1.0701008903639595 0.07733759386474358 -0.7230936534275655 0.3175352792842607 -0.371312366174794 -0.3030093342050285 1.3096901748213472 0.05620804116780514 0.6487472706829119 0.0632944319017424 -0.7470990824209643 0.722958613919226 0.43945021124443695 0.19938311660463698 0.681084602232748 0.03418470632780989 0.7415005765735405 -0.029900962244062888 -0.0191313161025493 1.7367223662963145 -0.32249447848489 -0.27237449559694205 -0.158006848250971 0.0629022032924735 0.25967551035742253
936 0.14868259033864104 -0.3535312178261457 0.7610939912358788 -0.061500055376176595 -0.19785232268262912 1.0070982318755082 -0.028836530096926282 0.34328473316826413 0.47359587551148624 -0.03981156524118285 -0.027044348206029977 0.3115807503955086 -0.4130618856971454 0.6244276406191523 -0.5849542793272913 0.7952639169955908 0.5347168020723109 0.572181121996234 -0.2494117828328014 -0.14033747297182045 -1.570534265393336 -0.006756172535144828 0.3495206346683178 0.6718632995785314 0.22277194414459298 -0.21020658817567847 0.041388298532790024 -1.1736860483579254 -1.0137652556476575 -0.33163504571973257 0.6194679504419544 -0.2182736830830895 1.0596995118058614 0.7012984586164516 -1.1034119479682496 -1.266558647807295 -0.6875322876914048 -0.011064696420743751 -0.4885554387164668 -1.0478389692759005 -0.007499303096256402 -0.7308219204851342 0.2877074235277599 -0.3923088941415276 -0.3223333243605044 1.315312552470739 0.05373227929940051 0.7086489390473956 0.051750238886958705 -0.6885695714687646 0.691505298156912 0.4437471399659297 0.21767668602821474 0.6862120324115804 0.04122502947465306 0.7075467545814309 -0.008735215476576736 -0.04368223234123161 1.7404124709593811 -0.3367340930796077 -0.2744508441104065 -0.18756159350105636 0.07623377522871823 0.2835275588105774
1629 0.13195299940797506 -0.3464589347549617 0.7658063152468837 -0.060935973646067954 -0.2111775690900766 1.0054375982140578 -0.005954093941864481 0.343744091579294 0.46231384210021426 -0.04737099934127082 -0.02115459241160023 0.2665002452528495 -0.4051071257975216 0.5904441981906243 -0.5394755601893466 0.734748918522904 0.5411013453237997 0.5432239667607777 -0.24864696025801056 -0.15200304503225995 -1.549547144084671 0.05583092486756903 0.3639661035118284 0.7024843121353137 0.2219512238809854 -0.20808643153785555 0.08656229501962276 -1.155951369911351 -0.9956838089623293 -0.3330325914447926 0.6235320757673414 -0.22305685749517176 1.055822003103841 0.7054911337580438 -1.0934405829129985 -1.304389758634299 -0.715136143713372 -0.024798394986516085 -0.50201862291238 -1.057590333596099 0.13130291990718915 -0.7157927398420176 0.34348421036774895 -0.35470306554234315 -0.3209741764000811 1.274849740100334 0.04086117661612198 0.67639605168738 0.0623014590985059 -0.7396073440674473 0.5863367052474101 0.47189442590012953 0.22948276921671973 0.6874154381835743 0.031287995110461465 0.7296375685953587 -0.031539549916809385 -0.01583829426786972 1.7328925518550478 -0.3269810616989656 -0.27780322347754793 -0.11249092691562257 -0.02906704164562288 0.2713619825822492
372 0.11485591022180548 -0.3264631727782848 0.7764970796481842 -0.06260396765109578 -0.21756047665966283 1.0343173118417681 -0.03244560946999944 0.3499310824127939 0.4641311871944004 -0.041978709957641774 -0.03441084644346087 0.23902093513559527 -0.3843988280686164 0.5503701006432711 -0.5418969718977009 0.7671440116824138 0.518913437641659 0.5398457990343677 -0.22189445205658048 -0.15847216928861543 -1.56138924784055 0.09821246486329906 0.34703887894239616 0.7036158381409436 0.2226574570221019 -0.20143312998580903 0.07407209693434008 -1.1616928732931635 -0.9863602708678862 -0.33646332665019896 0.6056023786592858 -0.19207544186337536 1.0609299869618487 0.7138462632859759 -1.078398814146581 -1.3047879155537105 -0.7365250852809895 -0.009903277677684211 -0.4824665684766614 -1.0526344317301093 0.14846564838838908 -0.7318833289070702 0.3377450120864051 -0.3844871092057137 -0.31262207113383905 1.3021428888025428 0.031834690818549685 0.6513577981872724 0.07249552407140357 -0.7485770091737152 0.6921862363373684 0.43509139993893536 0.1803286569157264 0.6784110893393193 0.021681166697915987 0.7465047706288712 -0.026988699656232747 -0.03458491357589297 1.7220512596456912 -0.34090693946397227 -0.2815218517098251 -0.055459649118573734 -0.10475625924595071 0.26872118848188153
847 0.07014914082802101 -0.3410166579178163 0.7720095307647806 -0.08328034591232832 -0.19747270588869356 1.0066801908966923 -0.01867449104986509 0.36564944737784616 0.4774812258186993 -0.046177423906884466 -0.017924658127162377 0.2811224060320689 -0.38337123225583414 0.5751886253504936 -0.5493724343639753 0.6839945317591731 0.5475270469023185 0.5378755264994951 -0.3477716895809531 -0.1481153957123477 -1.5488833631880123 0.09522574998276703 0.3691253516971665 0.7050122091818278 0.21832819000454975 -0.20800464675292446 0.04845798984293221 -1.1631269559808841 -0.9681299065303414 -0.32174345671552546 0.6442071210887258 -0.20186864628722107 1.063263728185162 0.6762404809656122 -1.0909618896354116 -1.285633181322417 -0.6927588447088665 -0.012926469462112318 -0.4956530849569492 -1.0369512805160248 -0.004356458244457688 -0.7052169169548943 0.288693045424219 -0.35788861802895244 -0.3183017060366457 1.251723749204558 0.03982378194067746 0.6584500285256735 0.06425422060375685 -0.7451721727004008 0.599627010032741 0.4752952876972413 0.21442631437075163 0.6694772279930729 0.034613120842416065 0.738043687416754 -0.004144820678554805 -0.02734969366354319 1.73262413717226 -0.3299692898093273 -0.2901057840806932 -0.0273898495277218 0.07699436979210811 0.272345018860192
1593 0.07457738249759022 -0.3202238823592629 0.7539180690755954 -0.05754436421554166 -0.19749730659232134 1.0021076646125693 -0.0391018291576849 0.32818917875096665 0.4472873446572222 -0.017131741917664194 -0.0348188363523454 0.2651725969692423 -0.3928517606933427 0.5810973738903978 -0.5583964136403593 0.7471552977499915 0.518453987388711 0.5394169947409869 -0.3500221032962926 -0.16275687531557387 -1.5563331474932325 0.02152168066576977 0.3507346390061864 0.6844153350137947 0.2233294162927935 -0.19202079098183686 0.01253285677500112 -1.195070485351827 -1.019724224615688 -0.3402793930528451 0.6076523125381869 -0.21750822867522554 1.0586899530181844 0.7117227842109511 -1.0971447243066688 -1.2744004067484165 -0.7289285423517471 -0.03046419682538167 -0.488309050145945 -1.034615709921975 -0.19606357840336078 -0.7020909950887195 0.3128491380519381 -0.355734456056487 -0.295743598872595 1.3043124353143871 0.04450498464034025 0.6963476634278755 0.08244890335605928 -0.7342595417014828 0.6364952972690934 0.4663888393215448 0.22213755818378997 0.6741627806473938 0.014945812196630518 0.7404947447257696 -0.0063045201839876325 -0.044390990607663536 1.7312464399130372 -0.34140356845865766 -0.26335243216837145 -0.03219982199040399 -0.0007862767617427018 0.27263392797779507
159 0.22689370620917176 -0.33891635575472245 0.7825984744575316 -0.06553996447756325 -0.21412671553501011 1.0291329229727544 -0.06335715524903324 0.3439019821588719 0.46967964956353175 -0.0507496206974924 -0.02095469364890641 0.2514871198062922 -0.39216566194204205 0.5736144621653634 -0.5464644100617655 0.7067927713062028 0.5254341637326314 0.5622521621015422 -0.23302665711062415 -0.15925277145614752 -1.5547345103913242 -0.028552724702265077 0.35020210399960644 0.699466434666508 0.2358703809302927 -0.21347838891984774 0.06504999244953047 -1.165935934399224 -1.0000462383081445 -0.3292541591999259 0.6055158614728148 -0.20726883005350027 1.0664905971696137 0.7206838299726634 -1.083732513466469 -1.3017866475609927 -0.71273130260395 -0.02054905155055586 -0.4931080858468512 -1.0511785257244193 0.21572872252977407 -0.7334107549562509 0.34315116910564 -0.379984187451655 -0.32292355313967547 1.3119520748001074 0.04009448686067146 0.6755331341291153 0.06924938411769287 -0.7326951824725841 0.6794204703071804 0.44464631765652746 0.20925843471220745 0.682268785655737 0.029048440554841178 0.7337505106376183 -0.030824837323050597 -0.04187294198107941 1.7327077440158811 -0.3410408543726037 -0.28145315007138166 -0.06860556018683675 -0.05229689850521436 0.26646046482995217
1820 0.07268018618687162 -0.3484018733567394 0.7506366853832176 -0.08192964357392568 -0.23618354221131857 1.0070718404048653 -0.004445817500584351 0.35900479388720774 0.47414965223735356 -0.0421294268901897 -0.001983615482630428 0.2391641014210518 -0.35138839643851627 0.5723245687367077 -0.5405156390874886 0.7533805219978196 0.5313008538912588 0.5348826452719123 -0.2468789986604768 -0.15571851906385714 -1.5464961522289038 0.16405950615135054 0.3330050712258694 0.6975171585977598 0.23281967516884702 -0.21925589537479254 0.012168656450028344 -1.1439652492688681 -0.9845029902456676 -0.33645797801301314 0.596919912946959 -0.19692014423493656 1.04311034767595 0.7082162929556989 -1.0604559323738518 -1.2882407430494522 -0.7107714323681172 -0.014830311615993472 -0.4766367766621273 -1.0399767750311741 -0.061899431365524865 -0.7039410268141396 0.3163087593195506 -0.3468624491033948 -0.30455570652014935 1.269353929280181 0.03422960001528662 0.6448862995993648 0.0684244356987343 -0.755383120250447 0.6252830962975867 0.4342522990680776 0.2220231559381672 0.6933777564117584 0.022273643281516355 0.7205769223059301 -0.004108280622062719 -0.016556289050887303 1.7279324140793955 -0.30651419355974896 -0.27920048569083755 -0.08486763540727288 -0.02886257848900204 0.25775512867262407
209 0.15245244803345462 -0.3285779268528633 0.7998517991499016 -0.07316066944333484 -0.20754600060494294 1.0014845728768915 -0.033052386479596914 0.3325244097133945 0.4572414461827276 -0.04713052942619374 -0.01969361146354091 0.2610077780250917 -0.4016082223359539 0.5586230908906644 -0.5811985498801532 0.7110247474248474 0.5360088796687451 0.5539889399005085 -0.2677620721530219 -0.1663147601761237 -1.557541268571711 0.039748756791329345 0.35325254453450355 0.6951608353337361 0.24174274173975566 -0.22673842532346417 0.0451986727977246 -1.2192163568468177 -1.0032878210633773 -0.32911458148591183 0.583882930031 -0.2389625987809323 1.0576451665752529 0.7157299071373615 -1.0844509852711133 -1.3102089702361943 -0.7274697589550846 -0.029217533904899725 -0.47511275880431736 -1.0244757228467471 -0.09390748233622714 -0.7044451526413371 0.3352871300754002 -0.39428849985266756 -0.3204940886624272 1.3305613911796323 0.005933396716829214 0.6562631200326047 0.08191102564755151 -0.6827426633855261 0.6271480722834556 0.4209967007817472 0.2199480648550978 0.6466703337019951 0.03010875951591705 0.7229077604614945 0.013908753853578813 -0.03404170863318655 1.7631373052447217 -0.32687522244820344 -0.27022993772478526 -0.07642397582788359 0.040615673646959914 0.27090959827015004
396 0.08582320548316114 -0.3222000195735942 0.7685816931983126 -0.0665199624765587 -0.21002904476481377 1.017810958367803 0.007328219110782389 0.33476633409075357 0.4478013492340951 -0.04529387008322602 -0.012890334354701175 0.2476282433838698 -0.40156451556577866 0.5701563873037903 -0.547320877543294 0.7027079696040662 0.5242127330883496 0.5448424537316063 -0.29954908194146757 -0.13669061427625062 -1.5419184686086786 0.04291432276685449 0.3404853474780596 0.6890544768015053 0.2472308197077885 -0.2465462915238244 0.03910497985000179 -1.1640369005799964 -0.9922507559454976 -0.3378841247177648 0.6071622510028568 -0.2376972712643278 1.041118846522964 0.715768701083693 -1.073751568811897 -1.285342294604503 -0.6967430085795121 -0.01558717206648622 -0.48160031764179023 -1.0383785386131836 -0.13522746401713645 -0.7217297267580024 0.3344713478761965 -0.3941221948620564 -0.30045487352138966 1.2937798450535192 0.022937168313883774 0.657976376741124 0.05775397514981035 -0.7034078023996082 0.6580057911300476 0.45028190139822283 0.22018983587500923 0.6589244477773852 0.037055331691514724 0.7237166520027822 0.00726455841678833 -0.04842561464715122 1.7269774546244772 -0.3178491483659193 -0.28495030643575103 -0.07250625472252786 -0.03803499212756469 0.2923306759470384
1819 0.20550653000757452 -0.3320789798999699 0.7797022043676306 -0.06267675787267542 -0.2366940415009419 1.0188166334302993 0.006567240379768195 0.3580681016492583 0.44434783824164914 -0.027949155499221997 -0.020960647642041932 0.24711386030827193 -0.3697845282417515 0.5663848177354076 -0.5413421700019851 0.7986859327238265 0.5305866925132018 0.5308746293015476 -0.22138845304054636 -0.15542994472069085 -1.5630191342097053 -0.05058848813968172 0.35828875297538293 0.7095170852926899 0.21283968244487272 -0.21260352822804124 -0.02096978319129328 -1.1559624175383496 -0.9692705297902244 -0.3176666909829941 0.6201377908866343 -0.20436813188978198 1.0480694366301564 0.6942401609915214 -1.0670973775117554 -1.3072190013640488 -0.6988467637282709 -0.021969549312589043 -0.48857154064123764 -1.04796920529827 -0.14101996657352947 -0.7033753676584825 0.30475859003594946 -0.3628556551287594 -0.30858860042994335 1.2789153982398933 0.0471279168119129 0.6473021717496977 0.07468554712419623 -0.7317700012445231 0.5747062654956173 0.44703450676592343 0.20799948359855036 0.664724443584634 0.02637411658223643 0.7391710229248661 -0.005381696551254559 -0.04696652826656108 1.7230198391814395 -0.31926912818996844 -0.2677844909316045 -0.03424543476935591 0.13907987099930907 0.27988728730294615
524 0.07322298038721634 -0.34221771657532857 0.7599628214089363 -0.068076017309638 -0.20294215510757724 1.0171612293821706 -0.036206758056307124 0.35386000576109256 0.43698799759429857 -0.05156866166099575 -0.017615626152578324 0.2637072913415896 -0.38031127382089785 0.5566978184160741 -0.5552220048000817 0.7062693433723521 0.5342202002346514 0.5508479206015121 -0.4113254251579371 -0.1487093173219595 -1.5481855384626009 0.05479041557443933 0.34888163278340684 0.6881814256212825 0.25081058779678184 -0.1952232500222992 -0.0076826236617348834 -1.1561937817259422 -0.9931147083974573 -0.34629333721942435 0.6325384437154241 -0.16972634983721757 1.049620444228257 0.7041350525620041 -1.0879120393201502 -1.2722129393808899 -0.730925928836099 -0.02438042577560594 -0.4896317365543411 -1.0396719720817873 -0.029962175928639118 -0.7074941469396179 0.30104283342881666 -0.37436007872404575 -0.29769076802873456 1.2832737341016376 0.05909522007785536 0.6274694439576886 0.07711459064661183 -0.720777410219092 0.6270263185390288 0.448600298020762 0.1984478999697901 0.6745627670818117 0.03189406457754017 0.7480742697497985 -0.025408215869778226 -0.03929520207878887 1.7449682261315993 -0.3463030657140468 -0.2586601276549464 -0.015187055310335488 0.01390295198275528 0.28230842287013697
1589 0.1324996091022261 -0.3363850838607834 0.7608879089648146 -0.07617431922780599 -0.21424478622840698 1.0097240244088257 -0.021132604910954745 0.36445016520741613 0.4560358514794863 -0.05472238308238987 -0.008914520602175253 0.25244014823750677 -0.3856728600054071 0.5725097945686928 -0.552536984532329 0.7301768023108147 0.5375265954200524 0.5514184955283428 -0.31017966461168295 -0.14947932355777696 -1.5486845589075493 0.040433745672649866 0.34008622698145635 0.6949284097390214 0.24151523040496442 -0.19663816958816546 -0.006421726311624839 -1.1557717234534621 -0.9732260040632197 -0.33221002815803363 0.6142401343879558 -0.2180043957865507 1.0648928888939562 0.7002608398377287 -1.0805346379332101 -1.2900067250295721 -0.6990286061221832 -0.023400974457619295 -0.4827769557302462 -1.0316403255457922 -0.09285770994307967 -0.7145736881176796 0.32040125796499647 -0.372640097931305 -0.3180251897732154 1.2920633134677768 0.0412855038912454 0.6478683883164137 0.0696679229528155 -0.7274431118500801 0.6071577721168216 0.4489350439637514 0.20332928046481186 0.6780483351205006 0.021943328529790834 0.7413056465476462 -0.0011903257219332939 -0.03118361115925287 1.729314187771029 -0.32499927759750197 -0.2753629477610183 -0.04443871776492459 0.03691740752598794 0.28388718886448594
1486 -0.1001781698412855 -0.33332771351931006 0.7470668777176844 -0.05195511547423423 -0.20952663605236485 1.012117053960567 -0.012267260980334056 0.36783185429925647 0.44680448433319514 -0.03880217902731938 0.00410646018935446 0.26524738649454244 -0.3530889753610963 0.5459162469005953 -0.5356186065077148 0.7245441459943903 0.5453641827527398 0.5438641125222524 -0.39189936724119867 -0.12954832480789122 -1.5622806967998626 0.23778408018103947 0.34496012364172923 0.7067252170640621 0.20100202638895356 -0.17066991532835737 -0.01726216008247194 -1.1697056251086442 -0.9689080594741672 -0.31941729160835 0.619570687227743 -0.18861731401877682 1.044918120590333 0.691466829683167 -1.0881639643056635 -1.2927830050721232 -0.6890517562527494 -0.0031566409129725834 -0.47613722789298857 -1.0148570091269546 0.04506029693990714 -0.7119131578037371 0.323623333448638 -0.35863398279473346 -0.3053505026876758 1.2717359877767682 0.037193444432718534 0.6433537795161116 0.0639676499266432 -0.7518819644595813 0.5928039366433342 0.4637550474077916 0.16206288363250015 0.6947017376626182 0.018463269838492946 0.7278743908544868 0.0016319968055711945 -0.00430151896895261 1.713170705230574 -0.31998662412552276 -0.2771613876753828 -0.007501281835708354 0.057638161818960094 0.26545062139642844
1331 0.198411163981182 -0.34419029808564183 0.7697229472831234 -0.0730491100426409 -0.22564993761075994 1.0052093150767663 -0.032485621402885564 0.35883315316221237 0.44198029587403076 -0.045914889547566604 -0.023083491502957038 0.26064446306627637 -0.39886903531550316 0.58307585399748 -0.5530204906652026 0.7469972378086728 0.5328608269272476 0.5495977168625817 -0.23585759179988647 -0.1561751338614772 -1.5498911633843204 0.024018596434608894 0.34387354213213506 0.6992984661682288 0.22132087355449687 -0.2112872798277449 0.046854231617230374 -1.1640698536204097 -0.9987101543169055 -0.349250592807833 0.6234065586860045 -0.20244315467775306 1.0459684769749849 0.7107415556003359 -1.1000804183032213 -1.2817816531868123 -0.7250355704448141 -0.016117795910274558 -0.48627350482151593 -1.0211400864546127 -0.15552227850240455 -0.6956702811500814 0.2922419598964535 -0.35919033759503416 -0.31482667458219 1.2653347210164334 0.04177640938349516 0.6696702943072083 0.07896879352555015 -0.7310561595988799 0.5974312708548315 0.4659571674699934 0.21531207753238546 0.6817861318736748 0.024230310788273573 0.7415467335574774 0.0035591776669836894 -0.05055361493628537 1.74410232214601 -0.32512355484059696 -0.2853934503961964 -0.06150368182214425 0.021683666227293414 0.3019471594165366
2058 -0.11004983007031087 -0.32844079243030705 0.7497806517400285 -0.07276138382738355 -0.2015661253294224 1.0001705694380592 -0.04285831219397293 0.3682883391807915 0.4665336451612717 -0.0492907110898897 -0.0115061066804819 0.2575185666900259 -0.38713504133184257 0.5964922761199271 -0.5450001823307807 0.8169898482955438 0.5264876881858583 0.553433357146621 -0.30889899453747555 -0.15662552233800098 -1.54490159168077 0.23810268262719197 0.35617188275032163 0.7039720924600686 0.21139740978536897 -0.19800298777624833 -0.005907023065024466 -1.162288972662623 -0.9870316722426686 -0.33720697860103144 0.602772300239066 -0.18299549656018543 1.06157512119113 0.7142186792920118 -1.083945023148275 -1.276522253753943 -0.7205984459952798 -0.011279416709975058 -0.48388725047559605 -1.0209113648828858 0.03433774259475152 -0.7114617913702462 0.28125430945256935 -0.35732616583436344 -0.3008523664126795 1.2699880819102878 0.050093714260092105 0.6583360599925792 0.06287770626249271 -0.7408245652345569 0.5911877308753427 0.44407914843255614 0.2117162854737559 0.684326313229452 0.029458541015074904 0.7283438484111564 -0.0017854254657995877 -0.019238660716373392 1.7392315882413685 -0.31149106693451845 -0.27456778614390825 -0.07017267860542802 0.15720012311908288 0.27396672073779893
1201 0.16154454923603248 -0.33675695130502453 0.7545227065617947 -0.0713371620832186 -0.21367440931879414 1.010316956727897 -0.0010755286123472012 0.36804414760847703 0.4530681045925702 -0.0553032361084787 -0.006237391032915442 0.24622187250424102 -0.39438311120614483 0.5773546839577856 -0.575210925357708 0.744658024369527 0.532439382379029 0.5341595198859083 -0.22799723299142396 -0.15470480009694493 -1.5428557433236278 0.08647060096185387 0.35449491940924027 0.6970093722737448 0.23441063993813208 -0.1961921570322413 0.02846004823118093 -1.1184118690777825 -0.9620430862767506 -0.3139633511774698 0.6127358400719998 -0.21225579215357387 1.0444469034087998 0.705713311835829 -1.070495510778541 -1.2706363808471741 -0.7071392911505492 -0.022482577099821193 -0.48329039254401646 -1.0236945598992533 -0.024536664601531564 -0.7038158443567821 0.34422420188271835 -0.3572969679538445 -0.3023721964695361 1.262250351359238 0.05182330027152069 0.6592767527283355 0.07142938181185932 -0.7214944488874836 0.5275019842476683 0.4390511384231612 0.22810478551021185 0.7062396759065339 0.015604554785289665 0.7328436932264404 -0.019119075612713324 -0.020803559554861746 1.7328524982319116 -0.30604452864708453 -0.2659205886745728 -0.04391123612095237 0.03154874152953316 0.27736367431459097
1129 0.09285242214999691 -0.3610878305312681 0.760489745874643 -0.07096932754889453 -0.2187963643262507 1.0130732980341803 -0.034186640678055734 0.354925277865787 0.4519207267556577 -0.05230527522991545 -0.019548098286106427 0.2560730506256108 -0.3861450683448331 0.5500240067502864 -0.5534649333471567 0.6790522352455758 0.5554747807992441 0.511695060317145 -0.3663299772895486 -0.16143320772971068 -1.5564213166364482 0.014072296541298381 0.3745014238202192 0.706991516181558 0.2521152453498197 -0.18052453255217213 0.04996692355760607 -1.168051296494669 -0.9851998089891064 -0.32401872105525126 0.6525273932608536 -0.20336158634549611 1.0360314925636227 0.6947055154236417 -1.1241814111821313 -1.3188425699919082 -0.7132283670997166 -0.018423084071353256 -0.49606493822686293 -1.0700466028809517 0.07610379870080085 -0.7083771958086958 0.2902967597249378 -0.35577134386374204 -0.30254599687487455 1.2606612992092376 0.041668516573938004 0.64104891289067 0.07463521750173094 -0.7610464828340727 0.6340158757779928 0.4819885237172795 0.1807693990094477 0.7040180729380499 0.025491693325068652 0.752817900741881 -0.009143328997858313 -0.04849721557237819 1.7464882662868306 -0.3369566277317719 -0.2771204806482889 -0.008683626458377667 -0.060164050411616696 0.3220008725272652
1180 0.06761343478987736 -0.33401575330610955 0.7362983775060399 -0.06451893211177778 -0.20547531113476591 1.0004023821560684 -0.0026808471221806043 0.3589290269472554 0.4273501710792894 -0.054066606016505835 -0.008276664001998502 0.27115014639954516 -0.3952802067568952 0.5878106150087816 -0.5779765641169977 0.6681467495033013 0.524192729801087 0.5571721871823047 -0.36252841907883276 -0.15774238358342774 -1.5374808666305206 0.09897758294689638 0.3624378226592648 0.6801351176699013 0.2217831156395003 -0.2477769852812973 0.04260420942642771 -1.1316819336019561 -0.9824846971009888 -0.33200499881328954 0.6159069546043442 -0.21912695768525 1.072373916139327 0.7223821746035123 -1.0602426103314082 -1.2295717492122356 -0.7242919826314449 -0.02594692816463989 -0.4741103331552728 -1.022666734617528 -0.02775588761884125 -0.7115559794649938 0.31482914498164916 -0.4077538808614653 -0.32432137544072864 1.2936623435836982 0.01106106344531297 0.6372013088409961 0.0708739655704651 -0.7069310048579507 0.6038939325355334 0.414776684830771 0.1983184853825316 0.7121599003519858 0.02322000329933362 0.7250047240199015 -0.010046698400927338 -0.037310014006480124 1.7605592954574087 -0.3323075771676611 -0.27772960436558297 0.0046051232333495454 -0.08991790504721933 0.2727639001372751
1982 0.0713996913720477 -0.326931603772556 0.7388376567516313 -0.06951518944006872 -0.2041784531044216 1.004050923249297 -0.039390552043255776 0.3470021368602862 0.48479753806037185 -0.04761007703638182 -0.039821874181579266 0.24222595452080672 -0.3785706987444573 0.6149768692412279 -0.5590817339007056 0.7221002318686626 0.5411222536734909 0.5379906403742041 -0.21510106665336176 -0.17179378177648627 -1.5460770241177064 0.08582153164340656 0.3819959470305939 0.7356027159139726 0.22562676786074348 -0.2233525107528558 0.04657125282751292 -1.1643566679091812 -0.9928142824830708 -0.32124237504919173 0.6317115168052589 -0.2099560362391922 1.0816992912256471 0.7062323081527387 -1.0837780971544297 -1.287849129524658 -0.7194638545405496 -0.027348649121015547 -0.4999506525316288 -1.0326735353659744 0.03967280135540598 -0.7022241867978136 0.2816653120035731 -0.35459140442447146 -0.30676796166964343 1.264974773925082 0.0448944529544713 0.6567354193188627 0.08216577330151892 -0.7525640513513304 0.6703633800639007 0.44946517705183575 0.2315841265155302 0.7160305222712792 0.019365503276328275 0.7531762671150259 -0.020930962801630145 -0.03323848222890744 1.7658646182233724 -0.3418083310672281 -0.2674845620155656 -0.007591662766220417 -0.03676844001689532 0.268257482362052
1679 0.17930801904313579 -0.3340503054880631 0.7712381027819804 -0.05597459043059619 -0.2161041401675334 1.0242121811150022 -0.004668056515617509 0.37026513503921943 0.4589859022227238 -0.027950231764512532 -0.01891865226378259 0.2996084829017948 -0.3515262187712613 0.5587206732760137 -0.529734434710906 0.6730388865645937 0.5100450740283077 0.5163557553842923 -0.35377614663138507 -0.15144800630298835 -1.5951762851216906 -0.007579307123873352 0.3534615131685518 0.6879669400495332 0.19589426322527692 -0.1894550181113594 0.05284817730514969 -1.1661233864031357 -0.9704489855232175 -0.3477222364180785 0.6309887613179371 -0.16927096882535309 1.068984698376386 0.664289704969081 -1.091981124204828 -1.2983990501563534 -0.6883204866938292 -0.03223986357787743 -0.4800543563744968 -1.0487432764715254 0.0024391237473549 -0.706255494284909 0.27747462990932364 -0.3881905218125158 -0.31938916379104787 1.2828802954290668 0.02646985331438999 0.6291134074193262 0.09929495879568843 -0.744735257345578 0.5287000748426175 0.44406073946870495 0.15171788519566173 0.665165564663652 0.015643688330847717 0.7441865877233492 -0.01791519085747118 -0.05164103706027319 1.7182557968352492 -0.3372937417830221 -0.2751915994320764 0.029605415782001567 0.06604477356108077 0.2769725183493697
765 0.03533132391613147 -0.3389530318826138 0.7350188433219963 -0.05941436986507926 -0.19901783820530206 1.0263684345851511 -0.007307182539042697 0.3666115014648703 0.4643079170435673 -0.04636199317014526 -0.021110528542662776 0.2726037831897136 -0.3751342005040342 0.6000998889002758 -0.5502240808567134 0.611342937321144 0.5261430851821631 0.5494745849561311 -0.3324973429772376 -0.1388858735872564 -1.5519472191807633 0.11868197874557278 0.3613410870419779 0.6861572010050346 0.21481414812551786 -0.2047059964720708 0.036951936072801436 -1.1296077979175314 -0.9768025659926268 -0.33181448535883706 0.6181518684502696 -0.1969653451814648 1.0625535352587123 0.7123366594406411 -1.1041288727808902 -1.257292457040452 -0.7287740533901648 -0.022634201877270728 -0.4836849561663386 -1.0269603312258382 0.15085492109453305 -0.7220755014734326 0.34369365360092696 -0.37732107050621666 -0.3087882079308262 1.2958921893857522 0.02535946829498951 0.6373430609317682 0.0656030246697306 -0.7474557908534397 0.6007914811348423 0.42710452126706727 0.166291128492554 0.7197395804484223 0.02871550777242932 0.7429656661744826 -0.02762719881085565 -0.02791699535430581 1.7323957419191836 -0.33296146918075503 -0.28385023538716414 -0.049916673891162215 -0.06960288979388855 0.25921713368492194
510 0.15275869275909892 -0.32005619571980354 0.7753090058283789 -0.07374725139111324 -0.21478823215611045 1.0217329776618262 -0.020886945336040613 0.35250975500645276 0.4381390178573157 -0.05331386557813328 -0.028131410363464848 0.25541255164455334 -0.36214366504760626 0.5640296769243488 -0.541146943406693 0.6942288412458786 0.5212487777318282 0.5266962696145393 -0.2522950162453234 -0.15610636508956416 -1.554218708925185 0.11842205286731348 0.3572325975672294 0.6996735251039455 0.22740757794705807 -0.2155546553435514 0.016050552861966303 -1.1555171312745616 -0.9819577451173516 -0.3361364321625043 0.6232022636821223 -0.1921749816031043 1.0578641486446052 0.7154359396223381 -1.0792926846423747 -1.2807968812007418 -0.7107148448002383 -0.02060994255853833 -0.48710008734864557 -1.0283575302236023 -0.10431378532106024 -0.7195946617290321 0.31949761864511156 -0.3766151169166194 -0.3024846694027351 1.2747702462428057 0.020269291744563475 0.646132679918678 0.08265705653369994 -0.7428355759469298 0.6409100741937798 0.4580433097466125 0.19870000605394825 0.6870652398084753 0.018281304001848072 0.7452069544880147 0.0017227181207747696 -0.027763224582456558 1.7301801892130921 -0.32925793492434213 -0.2729577200479123 -0.033711006332253456 -0.030886032428052632 0.27428933344128065
807 0.10274829220442212 -0.3418901811255977 0.7657984035458419 -0.07294756638108617 -0.22866147901364162 1.0106397084588252 -0.03262520332702137 0.3573151052149143 0.4545054823978712 -0.06817454023615355 -0.013839834906336612 0.24151638990296265 -0.3769359932427542 0.5690803118870169 -0.5300967589568654 0.7406191667504969 0.5321320451104425 0.5335100044079593 -0.18870617568230078 -0.15406874116866554 -1.5331145205389036 0.1875572191466799 0.35417223577854784 0.7019009533081801 0.20130869494424528 -0.20946061018455775 0.008049114338310837 -1.1474093689606486 -0.9712324265607191 -0.3262753066745317 0.6195891093670409 -0.21535873346921794 1.0502718146634649 0.7045506932958543 -1.0832128894351585 -1.28230883725784 -0.7137235300575349 -0.02550984249157716 -0.5014306541913757 -1.0350292261566179 0.05970984476450146 -0.7182598985357299 0.3265499337845812 -0.34528425699900345 -0.32510629654025947 1.2713259761743467 0.021518808604864433 0.6490790471528995 0.07042804738680526 -0.7462740061839767 0.5694740343094076 0.4374292282683977 0.20344091106917866 0.6846063134527659 0.015476355192627207 0.7397070800842899 -0.015485425878640005 -0.00969910837477541 1.7171486363271478 -0.3288381689026217 -0.2733169964336966 -0.016902158729992966 -0.03294002095239886 0.26973304657125
1498 0.17427233516968746 -0.34108667912753815 0.7587860979911677 -0.07761743049158445 -0.22016297260426662 1.0122796211750464 -0.0305839152181274 0.3599545832342045 0.4433634531589161 -0.06242064287850015 -0.020406866051250385 0.25264692749598255 -0.3945474645810295 0.5649239028730492 -0.5388814590672938 0.7590014644773816 0.5418851360550937 0.5550598508803607 -0.21825490457361638 -0.16497125394317563 -1.5458506869181257 -0.029626351577392195 0.3397582736184858 0.6937211788612793 0.2520149461968497 -0.21727176056850928 0.020863636627414483 -1.1603274745168086 -1.0192990420301713 -0.3575470868724453 0.6145251641448543 -0.22321747773076686 1.0620601747263374 0.7154307667600196 -1.090561682678014 -1.2837089379320448 -0.7474911412280769 -0.025839994910206943 -0.4816643572779223 -1.0466560934519722 0.16251027636050744 -0.7133082023735665 0.3573813005564217 -0.37336677400244134 -0.3041491198139518 1.2823509284120993 0.050263167364113806 0.6317534920598619 0.07989616403364426 -0.7310939772109311 0.5927285192302292 0.4446194500420898 0.2105894831220911 0.6766282020965788 0.022181097320009016 0.7304362741789727 -0.01322511148304361 -0.02784935403291735 1.7436920197704628 -0.3309552349081532 -0.268249662342419 -0.057779159216046885 -0.06229179293257092 0.26979875034936995
941 0.044943325380987054 -0.3161084194276389 0.7162822939850024 -0.056589589428807055 -0.20462860526156199 0.9955001717779935 -0.038871241038936015 0.3649000022416479 0.46305367158067295 -0.031981553481987654 -0.024930886935032877 0.26440058083796236 -0.36983766396288636 0.6036680870783813 -0.5617472172646552 0.721988770136032 0.5398649174404494 0.5475061293086363 -0.3346250577234447 -0.1491079152659731 -1.5610235468440343 0.09873231420487902 0.34759537299253945 0.6878493256312832 0.22001044541884412 -0.2120685326070823 0.041694544041819374 -1.1730477937697876 -0.9768316855872315 -0.34057625360252763 0.6293860496550259 -0.24394809118569716 1.0738945882292634 0.7011047558260874 -1.0883249019331487 -1.2792028528118646 -0.6894658955091669 -0.03743113135644146 -0.4549213489410865 -1.0475587895027005 0.116234906793606 -0.7253604211262614 0.2989381247772644 -0.3388883734820467 -0.32367502318142516 1.2701255723888962 0.029973359181558232 0.6219143749098751 0.0818941850536334 -0.7079729790252676 0.583792946235485 0.43536986172103537 0.20255826820777312 0.6851264633534913 0.011846278487893486 0.7344705466835584 -0.022259299937550377 -0.05245005525063014 1.7512952040383023 -0.3122176474431932 -0.2834664066562883 0.009324485931579876 -0.1270739002188288 0.2794503352187848
1013 0.04337541178821546 -0.3557838409594732 0.7788446241070919 -0.07235228458477701 -0.20678300800214425 0.9968412632193617 -0.03539851519517358 0.3726511316732893 0.4601095270480939 -0.03718149738516166 -0.020455405877759562 0.27222349001146356 -0.3690250751378977 0.5735673575118577 -0.5819503014496614 0.7077491260397911 0.540596501976839 0.5184751909552737 -0.36629350386274695 -0.15451873794598806 -1.5846890647172895 0.08609260292331433 0.37828464205210766 0.7322427268728414 0.24032536912409458 -0.2051847131349338 0.04503673470526751 -1.1528657256784383 -0.9492958277603342 -0.33074560791129537 0.6334109219118537 -0.20079104861191535 1.073505965404583 0.7050246990486303 -1.0660135165751987 -1.2419653161519217 -0.6972562250866355 -0.02810936777219617 -0.5016228345351057 -1.0338886892208305 0.2416923608523216 -0.7078841410734416 0.3199865933471246 -0.3618185139620581 -0.3265214118309339 1.2604898804690854 0.03342268004427945 0.649927114792718 0.08781585694172664 -0.7422681684077004 0.5012968447353511 0.4488208836862808 0.22952128559399546 0.7156487265467459 0.01122920201659375 0.7333351052156484 -0.023090834454066542 -0.03653870415606306 1.7669307647289199 -0.3302071949923981 -0.2574790648083851 0.0503166191623878 -0.07378665931675933 0.3064093811129185
1816 0.042910209425833595 -0.3384544971806486 0.7749281631579295 -0.06011689546676934 -0.21451375175924692 1.016270326970944 -0.02288841882744992 0.35318894005545554 0.4506159706332148 -0.028613394661870767 -0.026711705428521148 0.24031134497820875 -0.3793894130447832 0.5632651998599155 -0.5636946669817449 0.6317840031762688 0.536616140659479 0.554588385200406 -0.36305206179503907 -0.15534575254619482 -1.5523372697505198 0.1358309874714653 0.3562493401807384 0.7059830531289135 0.22668783537109533 -0.189860791193497 0.056919428046023283 -1.1884695945696078 -1.0014243823081874 -0.3265366026403225 0.609198192264973 -0.1953067878938773 1.0627842966330814 0.7170851898842755 -1.0679081345660026 -1.3047972840200233 -0.7233142861614104 -0.028368497102987875 -0.49727281236309057 -1.0481919612503818 0.05607639144676527 -0.7050780802203717 0.3260868698912336 -0.3574719813133997 -0.313578202309448 1.2901233399919019 0.032924059232464394 0.6536104440283589 0.0885002310931524 -0.7248702202648863 0.5716024101903459 0.44413752160553854 0.21718795131604957 0.6540449217714627 0.01976562829004521 0.737636185902889 -0.008984569702339611 -0.03868730728705866 1.7442989714293404 -0.30512787528054397 -0.27304983260061655 -0.0462768321695083 0.08070553692939887 0.27747838871971087
667 0.0400522482817969 -0.3369765555144473 0.7496065748193872 -0.0768837227420168 -0.2061562145892828 1.0150683748941869 -0.012779579366467392 0.35345341703638894 0.47836498879026174 -0.03659844525326268 0.0006079248542440971 0.2905979285033187 -0.36364753675500344 0.5970434027351816 -0.5320267954371994 0.7311098906108008 0.5546835617904523 0.536906291982593 -0.38088472609513846 -0.1662506156855172 -1.560838825638252 0.015594052856546123 0.3600883149760611 0.7072879936819222 0.23022625153717458 -0.21454471357216356 0.03396418151169178 -1.1712196842533857 -0.9745105116903954 -0.3300189924216106 0.6287777792177728 -0.21271894561841934 1.0664545087745296 0.6881503887951778 -1.0908770732696453 -1.2898930427858266 -0.6774851926142282 -0.031325517014419116 -0.4893883655861749 -1.0373375806221974 -0.0001534921823057253 -0.7150850656141932 0.2836708070925765 -0.3372411708750804 -0.3246555181928673 1.2532018385428472 0.04054284570542369 0.6582674020631895 0.07099000034049664 -0.7506993258066795 0.5378718750035758 0.44209379762636825 0.20273799947134777 0.720302609902947 0.025813462943068324 0.724384145838199 -0.0008065026508427502 -0.04291466885839021 1.7217550970397892 -0.3176107494316412 -0.2850403655953027 0.01600503357243183 -0.07779880251501868 0.28285300639708133
2047 0.024554503547805053 -0.33685247000006724 0.7736921751172203 -0.06395888118724055 -0.2220976754704287 1.0119300810446414 -0.016934353762184967 0.3507579627247049 0.46522096930104495 -0.0591117913328615 -0.008748580962878741 0.24467063309995557 -0.379433392472285 0.5986118340762365 -0.5592577212105234 0.768707192463207 0.5313851212883932 0.5619619453506051 -0.2869295630406687 -0.15407062233064134 -1.5418022397129754 0.10668532374961164 0.3482590868150691 0.7043013029167474 0.23739416045071568 -0.19228136047876185 0.02791680900375331 -1.150727300638921 -0.9797167963149025 -0.3271628923867264 0.5970667055730161 -0.22400949431413356 1.0577252238482728 0.7232138442307615 -1.0654414364689246 -1.2649798481663193 -0.710782605963838 -0.014210914576891207 -0.4834161567539921 -1.0322369017295505 -0.005438588798072862 -0.7087036955690474 0.31743091655735645 -0.36172677417605953 -0.31910728979420444 1.2796430036575477 0.03394757642515859 0.651193238158304 0.05919615570483546 -0.7231231049477808 0.57820437845379 0.4341189341157917 0.22313725557120426 0.6810723344742234 0.02558377573814018 0.7229732557706241 -0.014315444238391647 -0.02005049488776075 1.7241059744787615 -0.32427050654305967 -0.2827115078876172 -0.07353078670264347 0.004588892998042358 0.29574204368192364
1818 0.004082721009631736 -0.3303203779313152 0.7440952209084063 -0.09392509922874305 -0.19449134321105885 1.0021061176766308 -0.03007287997743697 0.3537607844653958 0.4500417026987639 -0.03694819536779046 0.008088290677608906 0.2904781483656178 -0.38250093243334476 0.5784106872825205 -0.5666044842929026 0.7650222715678809 0.5476629222749779 0.5462064067325583 -0.44351712100891166 -0.17713077178701161 -1.5454271184446446 0.03095430745374321 0.33337578612281155 0.67908157540167 0.23145378303398922 -0.19240459881880428 -0.004420526870897244 -1.1626390330198386 -0.9683686489084149 -0.3407173088623812 0.6110757610597287 -0.1983548449739007 1.0590719166527764 0.6878116872388967 -1.0822556998995045 -1.2757227454758437 -0.6796109231116423 -0.024966335707954767 -0.4805481026653794 -1.0379187377652004 0.23970586966483232 -0.701466344284077 0.33526377174550176 -0.38738900438894025 -0.29382973310884647 1.282901400958026 0.018801318709531424 0.6557428156438939 0.0764528566520621 -0.7055480923886347 0.4941305779038722 0.4511280210472641 0.2108076402181674 0.6753171967592304 0.014200381407397659 0.7132179688667991 0.005982455670529575 -0.041715373636506244 1.7428676217772399 -0.33074594523854284 -0.27946542023306703 -0.020919792936860925 -0.0799105289185331 0.30925604793155126
128 0.09716889288531216 -0.3396396596265151 0.7539356210926101 -0.07571718887357974 -0.21943947167796188 1.015764929024751 -0.024947337711997322 0.3727484860751971 0.4724810536171258 -0.053049951698918726 -0.014508172203267786 0.24942313550546946 -0.38254138231808066 0.5901173217620687 -0.5438743552648353 0.6440686897328114 0.538552675679456 0.557256621227254 -0.3292647938570363 -0.16488850380620146 -1.5508144874840213 0.08463750922256202 0.3389633670739004 0.6988961963815848 0.2146690772745783 -0.2257390137621679 0.049243125287989256 -1.1434431418610842 -0.9789070778190074 -0.33886984869655723 0.6219134441878688 -0.2075860825464058 1.061058122629173 0.6980066414825318 -1.07666113314253 -1.2936175937304042 -0.716685858862206 -0.03308797288168812 -0.4949244033397679 -1.0359360285201724 -0.11536736387428458 -0.7153728221585107 0.330754225070496 -0.3607183757769391 -0.3038187048445305 1.2690474424221787 0.05186611540696993 0.6584555536800543 0.06803898891915862 -0.7373386014059622 0.5439470231962042 0.4598683698328489 0.22465200652672282 0.6711424421223471 0.024851304872704986 0.7334238181682251 0.01512475989285506 -0.028543396256009206 1.729664427984914 -0.30847812869389896 -0.26744336279495584 -0.047950191892782115 0.12013717831952395 0.2677067140610105
1373 0.0770062660133875 -0.3288952254890916 0.7044316230712862 -0.0696316138415939 -0.18952190889318177 0.9795773953407736 -0.012112682188074299 0.3612929333725813 0.4398369907026581 -0.04658030523999068 0.02130703325094756 0.2448972933012374 -0.36002803093641383 0.559708372703664 -0.5761803199527533 0.679436588275733 0.5170655840278332 0.545357715322071 -0.4017836372407101 -0.1278664620912131 -1.5647039895063455 0.13671280382861686 0.2677674137009001 0.6440880641563137 0.2149795755081516 -0.190690744643455 -0.04689077641076838 -1.1459949257643738 -0.9724394007800877 -0.31867346119917356 0.6015936832180389 -0.1620600588003776 1.0496358701362087 0.7253943370671422 -1.0953600604632856 -1.260299166360608 -0.7183446627916602 -0.00981948662398323 -0.4556475181506789 -0.9974282845875176 -0.13506461202639877 -0.726317842563409 0.30009814985629385 -0.31908085343417447 -0.27047702651361244 1.2751638745813876 0.024291763475126377 0.616196421227962 0.05176875183395269 -0.7030409023502466 0.3663019604963954 0.43445437083438826 0.18328058643439527 0.6432574541543288 0.024322926589609894 0.7368211052291384 0.010138414446670864 -0.014051005191258225 1.7279656504353456 -0.266203161208971 -0.27571601889944414 -0.08728595010541987 0.07376272058939416 0.26899229146406245
1760 0.09717335344784354 -0.3295682340227219 0.7624215938165819 -0.0604355251927883 -0.21583097073458646 1.0001288734996054 -0.028651344196562345 0.36620695266143494 0.4459869843842981 -0.038886102069755075 -0.020184384845403528 0.32001361593932515 -0.3862157799319789 0.5537849159522158 -0.5306354477300618 0.6734322279282237 0.5113439435767894 0.553762325783369 -0.3415720330240126 -0.16245779307448524 -1.5492482038083688 0.026867536884350333 0.33866438961644374 0.6474857264440769 0.21542905062876 -0.21336704393683062 0.025718178205174327 -1.1556551906749013 -0.9786047527510754 -0.33963057296658017 0.601675654592807 -0.21972085783836928 1.0561912780919887 0.6826127191502372 -1.1193047874558366 -1.2795282974434399 -0.6740365352764184 -0.02456839348813692 -0.4877559665414988 -1.039852308411971 0.14768576408621914 -0.7199437717611673 0.32463203293905923 -0.39293059719345197 -0.3108437534626443 1.2951429510133825 0.039330430939978164 0.6826869195898938 0.07042034822023963 -0.7053366444194957 0.5371927598570635 0.4369959636610684 0.16278889097065127 0.6601992919526962 0.021918079242376466 0.7163382994057359 -0.019853651134488275 -0.042453577588175515 1.6953940300887507 -0.33424653133821947 -0.3066076910720537 -0.09196997953293899 0.03569662201732095 0.297317289646776
1275 -0.007016398573467155 -0.3334372921463123 0.7545006111567062 -0.05718270986718836 -0.19970086426592312 1.022858711817266 -0.019269008463357745 0.373817018720149 0.4714808672683277 -0.04774162095064339 -0.04298457914154026 0.25750139829105434 -0.3779807361099075 0.5852228883390583 -0.5361832501391058 0.7446511683459566 0.5233843794911924 0.5568197123884152 -0.2863320624077407 -0.15702256892214406 -1.542497916096606 0.15947059129081018 0.3604952906746298 0.6875706975963513 0.2100664639877249 -0.23081707029761434 0.02873503119927449 -1.135368199680863 -0.9801681347569876 -0.3415626200194198 0.6187878567378 -0.20141529984104908 1.0693232578636374 0.7120087109023557 -1.085242069001156 -1.281482238899719 -0.7235114784549539 -0.019162839649148278 -0.49458187237254386 -1.0564870562583264 -0.12030434645424615 -0.71895209073893 0.31113077736164185 -0.35821338717063556 -0.3238018699854461 1.2793312734267612 0.03185348381487572 0.640364460711495 0.07573988088949922 -0.7616228852853194 0.6476814069606033 0.43979606574692887 0.20136105346963856 0.6847830215230636 0.02561107547634769 0.7381105250654607 -0.013098213850875434 -0.04277673404741318 1.7377015747251658 -0.3417282509111877 -0.2885908729241732 -0.14591880114387062 0.02148067401363394 0.2712845975044172
638 0.03914570555446978 -0.3478227570181833 0.7605908647332761 -0.07354254568650488 -0.22297715309839022 1.0100299968863407 -0.022451429211677785 0.35205994538954644 0.4610393168456609 -0.04599868028763616 -0.01895317087821959 0.2776397416633379 -0.39376901133287506 0.6021219961511642 -0.5583265790051248 0.7204460882448175 0.5447117773432386 0.5435320914081313 -0.41468682033341414 -0.15964333814024018 -1.5518692109979881 0.021538022580739013 0.34275027704511224 0.696887246839924 0.2262110456293268 -0.20772250465531433 0.0790117046016712 -1.1734892849443053 -0.9945483393493141 -0.336295948944143 0.6515892791120803 -0.21840751060933775 1.061241303658495 0.6952050123772376 -1.0848485462578166 -1.2715749548259734 -0.6936078091248514 -0.0415307332506341 -0.49394589634751696 -1.0311260678628442 -0.019507904896002983 -0.6963859517567715 0.28213245388816494 -0.3604975004814744 -0.3134579650344919 1.270845305425231 0.04011610224750615 0.6778196367277439 0.08509525631504121 -0.7266324521943656 0.531858717790448 0.4715354119603812 0.21759788880543954 0.6609082995655221 0.01692822092042176 0.7381720415685079 -0.0009101076297678423 -0.05272700634460097 1.7299409541801813 -0.3230973217714367 -0.28493883220335053 -0.016248295895552718 -0.03160633060817118 0.29727917900513967
252 0.184212176496725 -0.34076910033048285 0.7709968956119201 -0.04975843089168586 -0.1998125133318671 0.9998794043100189 -0.016633112612929067 0.35533220903627405 0.4432913186245284 -0.04054551080501131 -0.032493956017088266 0.27394076608861884 -0.3986802119921124 0.549921804680897 -0.5516763453826237 0.7432637645391582 0.5307627496159218 0.5209894730614945 -0.23723998555320888 -0.14461369810102948 -1.5442163102452784 0.06297745034628534 0.3713990418543088 0.6885602322182045 0.19466205616703935 -0.21353005363979394 0.03252959126845747 -1.1664031649876117 -0.9739177970130306 -0.3163982198260264 0.6279498747368076 -0.2283407821339089 1.0400236866714054 0.6886568838687782 -1.1075041189767472 -1.2994953365637454 -0.685549732739302 -0.03209713575206018 -0.4872653154445628 -1.0602379913724906 -0.030112363402740875 -0.710942723004325 0.30077796102037435 -0.3737022772806864 -0.32710331821844896 1.2759699656547592 0.0010456216468113766 0.6605719013656594 0.07964601937701311 -0.7295748509253662 0.6379941285371571 0.45956132811468675 0.1940661774157573 0.7141295365271934 0.018238019297445514 0.7300230108642893 -0.001228563293178244 -0.034480744061066965 1.7321677040122772 -0.3475206835798258 -0.2797828995798556 -0.03958813222965112 -0.06990009476357437 0.2745676349398357
